<?xml version="1.0"?>
<opencv_storage>
<my_svm type_id="opencv-ml-svm">
  <svm_type>C_SVC</svm_type>
  <kernel><type>LINEAR</type></kernel>
  <C>1.</C>
  <term_criteria><epsilon>2.2204460492503131e-016</epsilon>
    <iterations>300</iterations></term_criteria>
  <var_all>4752</var_all>
  <var_count>4752</var_count>
  <class_count>2</class_count>
  <class_labels type_id="opencv-matrix">
    <rows>1</rows>
    <cols>2</cols>
    <dt>i</dt>
    <data>
      0 1</data></class_labels>
  <sv_total>1</sv_total>
  <support_vectors>
    <_>
      -5.32102013e-006 -4.70288978e-006 2.83265799e-005 3.33619791e-005
      3.79956509e-005 5.53678547e-005 7.30095126e-005 9.28951922e-005
      8.70567092e-005 7.65750592e-005 5.50843906e-005 3.27578418e-005
      3.70354683e-005 4.91403953e-005 6.81458332e-005 8.02036302e-005
      6.42716550e-005 3.43144748e-005 3.18369894e-005 4.75803336e-006
      -3.70952034e-006 -5.69499889e-006 -2.43221948e-005
      -4.56405432e-005 -5.27137308e-005 -3.92752045e-005
      -1.79968938e-005 -1.20400573e-005 -9.87097519e-006
      -2.36265441e-005 -4.19084972e-005 -3.25465335e-005
      -2.54976821e-005 -4.43497374e-005 -4.45388469e-005
      -3.20913059e-005 -6.40910957e-006 -2.33755400e-005
      -4.47574348e-005 -2.52638474e-005 -4.01320576e-005
      -6.34398384e-005 -8.03225703e-005 -7.54114517e-005
      -2.90350054e-005 -2.33354931e-005 -3.89280103e-005
      -4.74639201e-005 -3.32760319e-005 -1.75969235e-005
      -1.35210412e-005 -1.39238073e-005 -1.72874443e-005
      -7.72903604e-006 -5.68118912e-006 -8.07824745e-006
      -2.76526498e-005 -2.86928625e-005 8.79048798e-007 4.36920127e-005
      5.00548122e-005 5.43684982e-005 4.95758650e-005 3.54982476e-005
      4.13192756e-005 4.70100458e-005 3.94885137e-005 1.74635115e-005
      1.32858713e-005 1.50452561e-005 2.71820136e-005 2.88032843e-005
      6.26219044e-005 6.67384738e-005 4.82345858e-005 4.79329537e-005
      5.21480579e-005 5.77181017e-005 7.96265085e-005 8.78619612e-005
      8.09352568e-005 9.41166363e-005 9.36504221e-005 6.69380970e-005
      1.34807897e-005 -6.97603411e-007 -9.55675432e-007 1.13310261e-005
      1.45190461e-005 2.74846443e-005 4.07803454e-005 1.70215881e-005
      1.39634712e-005 1.55134367e-005 2.21883802e-005 1.47742676e-005
      3.16194091e-005 3.18671955e-005 2.33722549e-005 1.34085794e-005
      7.85107295e-006 7.05318007e-006 -2.98478881e-006 -3.35465847e-005
      -7.38141462e-005 -1.05673542e-004 -1.20770055e-004
      -9.91034467e-005 -7.93004074e-005 -2.74484955e-005
      -1.43198977e-005 -3.22079104e-005 -3.37915881e-005
      -2.75724851e-005 1.29925624e-007 2.92021650e-005 2.64010177e-005
      2.09938953e-005 1.62366669e-005 1.93448636e-006 4.59556190e-007
      -1.07069513e-006 3.00341508e-005 3.50556802e-005 2.67973992e-005
      4.99501994e-006 9.84426242e-006 -4.42040891e-006 -2.83179415e-005
      -2.49545519e-005 8.75792557e-006 1.45937538e-005 2.70904388e-006
      -2.47176126e-006 -1.42552317e-005 1.60946020e-005 4.36355149e-005
      5.97626313e-005 5.96074860e-005 4.93302796e-005 2.99051007e-005
      1.15855746e-005 -3.63601102e-005 -8.40147695e-005 -2.13593466e-005
      -1.52862958e-005 6.85843133e-006 2.92478380e-005 3.98769953e-005
      5.73614307e-005 6.77715652e-005 8.57053528e-005 8.92197349e-005
      6.89342633e-005 5.41739209e-005 4.16354123e-005 3.28635251e-005
      5.61511770e-005 6.65933985e-005 8.21827853e-005 4.94306587e-005
      4.73597029e-005 4.99079533e-006 -2.18637415e-005 -3.20350227e-005
      -3.82224098e-005 -5.35058207e-005 -6.26882029e-005
      -6.45313630e-005 -5.64295478e-005 -4.29355241e-005
      -2.91935958e-005 -2.16200042e-005 -2.41984035e-005
      -4.00238096e-005 -3.80356432e-005 -2.04953903e-005
      -2.79894120e-005 -3.92198490e-005 -3.51913659e-005
      -8.34789807e-006 -4.96595931e-006 1.30681360e-006 7.39044617e-006
      -4.61492982e-006 -3.54689728e-005 -4.62458484e-005
      -6.14385281e-005 -2.30329697e-005 -2.15639975e-005
      -4.42178680e-005 -6.12410877e-005 -5.14370149e-005
      -3.75224408e-005 -2.05117049e-005 -3.73344265e-005
      -3.86523861e-005 -2.85970054e-005 -1.86373054e-005
      -1.88482372e-005 -3.31340998e-005 -4.25285070e-005
      -1.08196173e-005 1.74111137e-005 2.30697005e-005 3.40725965e-005
      2.05757169e-005 1.23043010e-005 1.65700603e-005 3.02098233e-005
      2.11398838e-005 1.81535370e-006 -3.98593386e-007 6.78667766e-006
      1.18810021e-005 1.94549211e-005 4.51079432e-005 6.62299499e-005
      6.59471916e-005 4.25129983e-005 3.73646944e-005 4.20599754e-005
      5.40284600e-005 6.80729718e-005 5.94077210e-005 6.49495923e-005
      6.35440156e-005 4.46192898e-005 1.24856961e-005 -1.38599835e-005
      -4.78436959e-006 1.49960088e-005 1.83831798e-005 2.58119289e-005
      5.04902528e-005 3.36491648e-005 3.36340236e-005 3.26838162e-005
      2.90699209e-005 2.92085278e-005 4.02200858e-005 6.47520283e-005
      5.47838317e-005 4.10249013e-005 3.99819073e-005 3.45817461e-005
      1.96072888e-005 -1.91180552e-005 -5.78344807e-005 -8.42338777e-005
      -8.56688785e-005 -7.86745222e-005 -4.27429040e-005
      -5.14232715e-006 -1.92885764e-005 -2.99418080e-005
      -3.16029182e-005 -2.57216307e-005 1.18230182e-005 4.27383966e-005
      3.31364645e-005 2.43165086e-005 4.76167543e-006 -6.30583963e-006
      -1.25497281e-005 -2.70645114e-006 1.44651131e-005 2.42004808e-005
      2.54131501e-005 1.75607147e-005 1.47139581e-005 -4.60665160e-006
      -2.60220622e-005 -2.58795262e-005 -1.35167447e-005
      -1.49255084e-005 -2.06138466e-005 -2.77717718e-005
      -3.70835551e-005 2.54070369e-006 4.17010378e-005 4.51856286e-005
      3.09990173e-005 3.98714074e-005 1.69182767e-005 -5.88360308e-006
      -5.58837019e-005 -8.96701022e-005 -1.38094447e-005
      -2.19855174e-005 -3.15142074e-006 2.81533012e-005 3.97461517e-005
      5.05061216e-005 6.66608394e-005 1.00637721e-004 1.09020817e-004
      8.43422022e-005 7.03847982e-005 4.56820344e-005 4.70154882e-005
      5.98887345e-005 5.10304926e-005 5.13006344e-005 4.21222539e-005
      3.48362119e-005 1.10532719e-005 -1.86877533e-005 -4.44726647e-005
      -6.35920951e-005 -6.93050388e-005 -5.67055904e-005
      -4.95139429e-005 -4.98935806e-005 -3.48537069e-005
      -3.36042212e-005 -3.66586719e-005 -1.71879528e-005
      -2.48126180e-005 -1.83678858e-005 1.45004208e-007 6.09674225e-006
      -2.21200298e-005 -2.29279249e-005 -2.11234556e-006 2.87666535e-005
      4.11679976e-005 4.89407284e-005 4.32321467e-005 1.17615900e-005
      -1.36240351e-005 -6.12082977e-006 -1.23537639e-005
      -4.12215286e-006 -2.39575984e-005 -6.10842180e-005
      -8.06404787e-005 -6.64684339e-005 -6.65313564e-005
      -5.67221323e-005 -3.80297570e-005 -1.42636263e-005
      -1.06971011e-005 -2.81543216e-005 -5.49554170e-005
      -7.17966759e-005 -5.65223163e-005 -3.18473103e-005
      -9.09358005e-006 2.00524119e-006 -2.92444997e-006 -1.15786145e-006
      1.44920077e-005 1.52209341e-005 1.01269889e-005 -2.57723568e-005
      -3.05431458e-005 -2.40051504e-005 -2.89639192e-005
      -1.49380394e-005 1.37240922e-005 3.05057401e-005 2.50342273e-005
      5.34396850e-006 -2.09899590e-005 -2.46472755e-005 -1.89960811e-005
      -4.57133501e-006 7.42030409e-007 -1.49682387e-006 -4.41658995e-006
      7.57678345e-006 -1.58023959e-005 -3.65469205e-005 -3.84992527e-005
      -2.09269256e-005 -3.40824249e-006 1.83646443e-005 3.69755944e-005
      2.05362503e-005 1.72278051e-005 1.49884863e-005 5.75560489e-006
      1.10652672e-005 4.23086312e-005 6.63197861e-005 6.57155470e-005
      6.19091807e-005 7.00534802e-005 7.29403328e-005 6.46616390e-005
      2.71774443e-005 -1.85275039e-005 -5.58330648e-005 -6.66802880e-005
      -6.46652261e-005 -2.33262781e-005 -5.67740381e-006
      -3.59120968e-005 -4.44811267e-005 -5.00253227e-005
      -3.98478223e-005 -8.74925490e-007 5.31380465e-005 6.52165400e-005
      5.62391251e-005 3.08027884e-005 5.04555510e-006 1.05728568e-005
      2.99739058e-005 3.62286846e-005 4.26408224e-005 5.08298508e-005
      4.55354239e-005 5.30758880e-005 2.79769538e-005 -3.28193073e-006
      -2.63816783e-005 -3.05679423e-005 -3.08522940e-005
      -4.13325142e-005 -3.84257219e-005 -3.09379939e-005 1.21803851e-005
      2.67571868e-005 2.71991103e-005 1.91315867e-005 -3.71682358e-006
      -1.34098136e-005 -2.15857926e-005 -5.26248587e-005
      -1.04262486e-004 2.10173930e-005 -1.32739785e-006 -8.57324903e-006
      -2.37008339e-006 5.58207421e-006 3.67989742e-005 6.45283144e-005
      9.66951557e-005 1.26826766e-004 1.15057061e-004 8.64850299e-005
      6.27526097e-005 6.36044715e-005 7.40738324e-005 6.65646949e-005
      5.85852649e-005 2.50421581e-005 -3.33383537e-006 4.00766021e-006
      -1.02468593e-005 -1.08046897e-005 -4.20916622e-005
      -4.93331536e-005 -3.43909633e-005 1.21378516e-005 3.43172724e-005
      3.37294878e-005 2.20203347e-005 1.16317833e-005 3.43500797e-005
      1.74611614e-005 2.90829325e-006 1.91199870e-005 1.14047216e-005
      -1.12975013e-005 -1.21474286e-005 3.36801804e-006 3.15243087e-005
      4.64835757e-005 6.95784765e-005 7.81367344e-005 6.05460773e-005
      3.44138425e-005 3.45705121e-005 5.70371594e-006 -1.26307832e-005
      -2.94017864e-005 -6.18812192e-005 -4.80578201e-005
      -2.34452236e-005 -2.68044205e-005 -1.69978812e-005 2.59341250e-005
      3.20551226e-005 1.25629922e-005 3.59168666e-006 -2.47774788e-005
      -3.53565592e-005 -2.60292491e-005 -1.89076363e-005
      -4.26528641e-006 1.23033624e-005 7.19159289e-006 3.11586919e-005
      6.18392442e-005 6.09993040e-005 3.65608394e-005 -1.64480116e-005
      -2.43497143e-005 -1.97976460e-005 -2.24928008e-005 1.15623970e-005
      5.15674838e-005 5.31222940e-005 3.35860459e-005 -2.76956303e-006
      -4.25417456e-005 -3.98442280e-005 -3.48623544e-005
      -4.05384999e-005 -4.31884291e-005 -4.82118521e-005
      -4.48389401e-005 -3.53397772e-005 -4.12127920e-005
      -4.74978151e-005 -4.64716795e-005 -3.40226434e-005
      -9.60421039e-006 2.45994306e-005 4.51326960e-005 2.28361914e-005
      1.75430214e-005 -4.88551268e-006 5.52174333e-006 1.93323785e-006
      2.50123376e-005 5.00368515e-005 6.90168599e-005 7.71602499e-005
      9.32271578e-005 1.02719372e-004 9.96876697e-005 5.60038061e-005
      4.73771706e-006 -5.17689368e-005 -7.83757641e-005 -5.19487512e-005
      -3.64669504e-005 -2.30061887e-005 -5.62667519e-005
      -6.69084839e-005 -5.63506255e-005 -5.09165548e-005
      -2.23044462e-005 4.43873905e-005 6.60486112e-005 7.44928693e-005
      5.13484229e-005 2.31244230e-005 1.71672418e-005 3.04499354e-005
      4.19720491e-005 3.35578297e-005 4.38340212e-005 5.03200536e-005
      5.74249498e-005 3.75562995e-005 -1.24818680e-005 -3.14524877e-005
      -1.31736097e-005 1.45745498e-005 2.28888457e-005 2.09166174e-005
      1.32591058e-005 5.44348404e-005 6.27936606e-005 6.01299253e-005
      4.49501531e-005 1.72352757e-005 5.00387614e-006 -5.43547048e-006
      -5.03909650e-005 -9.03836699e-005 4.22504490e-005 1.14272434e-005
      -1.73540557e-005 -3.25054098e-005 -2.01826915e-005 2.91874244e-006
      3.65251872e-005 7.25018035e-005 1.00777026e-004 1.10394132e-004
      9.82774291e-005 5.23465751e-005 5.41580557e-005 6.02938489e-005
      7.01204990e-005 4.97455076e-005 1.09595226e-006 -1.90405481e-005
      1.76793965e-005 4.64117584e-005 4.49977379e-005 1.34411084e-005
      -3.27396920e-005 8.05573472e-006 6.16913021e-005 7.45384386e-005
      5.03035226e-005 1.94673794e-005 2.05237666e-006 2.16715689e-005
      2.03083746e-005 5.58302236e-006 2.68287681e-006 -2.92662626e-005
      -5.25110263e-005 -5.80325650e-005 -3.92953807e-005
      -6.87031161e-006 -5.52590018e-006 -2.13841233e-007 1.68703336e-005
      3.48732246e-005 2.73103869e-005 6.14382088e-006 -3.44294349e-005
      -7.49148894e-005 -8.94484110e-005 -1.11347501e-004
      -6.90334855e-005 -3.05929170e-005 -3.34931683e-005
      -2.91140605e-005 1.72598175e-006 9.33206138e-006 -4.47139792e-006
      -1.33750336e-005 -3.78397417e-005 -6.18476770e-005
      -5.45065523e-005 -5.30270881e-005 -4.67328755e-005
      -1.54071222e-005 -1.31038523e-005 1.98919843e-005 5.17923290e-005
      5.61685483e-005 3.70480411e-005 4.35526744e-007 -1.80349689e-005
      -1.86793841e-005 3.28522765e-006 5.28707715e-005 8.99622901e-005
      7.98490364e-005 5.00072274e-005 2.29957823e-005 -1.92805946e-005
      -4.41914999e-005 -5.42824273e-005 -6.82897007e-005
      -5.26296681e-005 -4.05556166e-005 -2.81550529e-005
      -3.70752205e-005 -5.26479707e-005 -5.12854167e-005
      -5.86777969e-005 -3.94555864e-005 -1.08424347e-005
      -7.18711999e-006 1.14279173e-005 -5.37451069e-006 -8.70154145e-006
      -3.44677574e-005 -3.75986419e-005 -3.77752694e-005
      -3.52892930e-005 -1.44520800e-005 3.25076462e-006 4.14837014e-005
      5.29484350e-005 6.33241289e-005 8.83750035e-005 7.22526456e-005
      3.16675032e-005 -2.34692980e-005 -5.93375007e-005 -4.43278805e-005
      -5.39259781e-005 -5.65192531e-005 -7.46741498e-005
      -7.81084236e-005 -6.81154997e-005 -6.60731021e-005
      -3.92863549e-005 6.12250096e-006 3.91627837e-005 4.83759686e-005
      3.46872985e-005 2.12572886e-005 1.83122793e-005 1.88820050e-005
      1.91833878e-005 2.12814884e-005 4.81028583e-005 4.90123239e-005
      2.98761170e-005 -2.04246953e-005 -5.16859036e-005 -5.54711842e-005
      -2.28976205e-005 1.97257214e-005 4.36360097e-005 4.77311514e-005
      4.10867906e-005 7.43978744e-005 8.66775299e-005 7.37139708e-005
      7.54481152e-005 5.79039879e-005 5.38524873e-005 2.65147301e-005
      -3.66290114e-005 -8.04772862e-005 2.76476094e-005 -5.40868723e-006
      -3.00204774e-005 -4.39727592e-005 -4.13641137e-005
      -3.42278618e-005 -9.43781106e-006 1.99730457e-005 5.47078089e-005
      8.84487235e-005 8.24053350e-005 5.25087489e-005 4.60618685e-005
      6.34631069e-005 6.47572670e-005 4.52247696e-005 1.43071966e-005
      3.08042945e-005 6.00255407e-005 9.30826354e-005 7.19664022e-005
      3.91613103e-005 -1.83483517e-005 1.12085709e-005 6.97876458e-005
      6.43641906e-005 3.50209048e-005 -8.89795228e-006 -1.92672487e-005
      2.23724383e-005 2.66177321e-005 1.45784134e-006 -1.55235812e-005
      -3.15945763e-005 -3.54410040e-005 -3.98825287e-005
      -4.13072012e-005 -1.01329861e-005 -2.21503833e-005
      -4.61847485e-005 -3.04183977e-005 1.27339954e-005 -2.33883770e-006
      -2.31058602e-005 -6.37358098e-005 -1.28079802e-004
      -1.52587163e-004 -1.51931556e-004 -9.45848005e-005
      -5.27577431e-005 -5.62043133e-005 -5.09886959e-005
      -2.87034272e-005 -3.06089787e-005 -1.98339767e-005
      -1.03359025e-005 -3.61618258e-005 -7.14048438e-005
      -8.34644889e-005 -9.77603777e-005 -8.77870625e-005
      -6.18521517e-005 -3.58531761e-005 -1.09623761e-005 2.60266916e-005
      3.14701865e-005 2.77635063e-005 -1.81466692e-006 -1.42809085e-005
      -1.18371854e-005 2.16717108e-005 5.06877695e-005 5.43832721e-005
      7.96072054e-005 5.60663611e-005 3.19828250e-005 -1.37380166e-005
      -4.89726553e-005 -5.97894577e-005 -5.16600776e-005
      -2.75225102e-005 -3.12606994e-006 1.26471086e-005 1.54362942e-006
      -1.01254727e-005 -1.97721547e-005 -2.52255213e-005
      -5.22668961e-006 -8.24702795e-007 1.53400997e-005 2.05034012e-005
      1.28153142e-005 -3.07879200e-005 -6.92148169e-005 -7.53868808e-005
      -7.16517461e-005 -6.99255397e-005 -7.36311777e-005
      -4.70800151e-005 -3.11517724e-005 -1.68736424e-005 3.29368740e-005
      5.93934892e-005 5.30871075e-005 4.76146415e-005 2.37494733e-005
      1.15598314e-005 -1.30620556e-005 -5.17449917e-005 -6.07886577e-005
      -4.54581641e-005 -4.49157087e-005 -4.74686385e-005
      -3.36686753e-005 -4.10783214e-005 7.60287548e-006 3.56258206e-005
      2.94333495e-005 1.16751162e-005 1.17506415e-005 7.18553065e-006
      9.72637008e-006 1.35266337e-005 4.39626601e-005 7.33506458e-005
      4.74962435e-005 1.96705105e-006 -5.46726296e-005 -5.96062600e-005
      -5.77984283e-005 -3.17459126e-005 2.03054105e-006 3.29158865e-005
      4.67904720e-005 4.45523474e-005 5.39526336e-005 6.39892460e-005
      6.16574616e-005 8.85923146e-005 8.84198525e-005 6.44212123e-005
      5.46253905e-005 -2.35582884e-005 -8.49131538e-005 3.22218839e-005
      8.11197788e-006 -7.55876772e-006 -3.97215699e-005 -5.95561796e-005
      -5.10400314e-005 -4.45485202e-005 -1.44753267e-005 1.86513698e-005
      5.29005410e-005 4.80288581e-005 3.39734579e-005 3.07517839e-005
      6.03923072e-005 8.80122170e-005 8.13371371e-005 6.66550695e-005
      6.33937161e-005 8.42093868e-005 1.05501531e-004 7.61144984e-005
      2.31356917e-005 -1.33516842e-005 2.00237969e-006 4.95280074e-005
      3.17212580e-005 -1.32029072e-005 -3.42846724e-005 -1.90672563e-005
      9.83031987e-006 2.13444200e-005 -1.11832287e-005 -3.02024127e-005
      -3.46620218e-005 -2.56214134e-005 -2.11442257e-005
      -1.02867716e-005 4.13448361e-005 4.06825602e-005 1.72956097e-005
      7.33197930e-006 3.68759829e-005 1.66109694e-005 -3.49168295e-005
      -9.33932897e-005 -1.62489188e-004 -1.81960160e-004
      -1.63893841e-004 -9.90496919e-005 -7.81020863e-005
      -8.82000240e-005 -8.64682006e-005 -4.99524067e-005
      -3.66844833e-005 3.12540010e-007 2.97143160e-005 -5.36596144e-006
      -7.16958166e-005 -9.92096320e-005 -1.02246981e-004
      -8.80186053e-005 -4.52132299e-005 -4.32061061e-005
      -2.23910156e-005 5.03064803e-006 9.57828524e-006 -4.09956147e-006
      -2.22758899e-005 -1.14112772e-005 -5.40633482e-006 9.09194932e-006
      9.49184050e-006 1.62054130e-005 4.57885544e-005 2.68327003e-005
      -5.78872732e-006 -2.99298408e-005 -5.29974968e-005
      -6.85056802e-005 -5.40143155e-005 -5.34058636e-005
      -3.22264968e-005 -1.10384099e-005 2.62058916e-006 2.02090214e-005
      1.48776007e-005 1.03375469e-005 1.26032928e-005 -3.28604506e-006
      1.34594693e-005 2.74831582e-005 3.75752425e-005 -2.15914461e-005
      -5.94125377e-005 -4.72890133e-005 -4.99650050e-005
      -4.77351532e-005 -7.50467079e-005 -9.24732522e-005
      -9.74078503e-005 -6.13565571e-005 1.02403237e-006 2.37709246e-005
      2.08018464e-005 4.68676117e-005 3.18905768e-005 1.35741584e-005
      -3.47189998e-005 -7.06869832e-005 -5.05237476e-005
      -1.93395117e-005 -1.78801183e-005 -1.27084577e-005
      -5.64664424e-006 -3.44564723e-005 -8.19468460e-006 2.60114120e-005
      1.48719428e-005 -4.11097335e-006 -2.33376941e-005 -1.17113350e-005
      3.78167982e-007 2.86165214e-005 4.61526979e-005 6.09055169e-005
      5.53875434e-005 -1.40762750e-005 -5.74732876e-005 -8.92230091e-005
      -1.05471256e-004 -8.85615082e-005 -3.99078854e-005 1.29050941e-005
      3.77799915e-005 4.07683292e-005 4.38959323e-005 6.47239940e-005
      6.35036267e-005 7.93321742e-005 6.23318483e-005 7.24151614e-005
      9.49986279e-005 -5.73180102e-007 -8.51985096e-005 2.97286351e-005
      1.81831001e-005 1.66924895e-006 -5.17295011e-005 -6.92338508e-005
      -6.12695076e-005 -5.95321762e-005 -2.49682598e-005 2.86787708e-005
      4.47293023e-005 6.11113792e-005 2.72365669e-005 2.78202606e-005
      8.66640330e-005 1.31551351e-004 1.10725661e-004 7.94735970e-005
      7.24995989e-005 8.79410582e-005 1.01826678e-004 5.05292955e-005
      -1.25655988e-005 -4.90804741e-005 -3.10945506e-005 8.41965539e-006
      -1.25867200e-005 -5.62661080e-005 -5.84571862e-005
      -2.20037309e-005 2.23989446e-005 5.54768994e-005 3.30834191e-005
      -7.48896537e-006 -5.43856622e-005 -3.90399728e-005
      -3.54773038e-005 -4.70801160e-006 6.52278031e-005 6.50171787e-005
      7.58079186e-005 8.52366356e-005 8.06352691e-005 5.11069375e-005
      -1.01679580e-005 -7.02454345e-005 -1.30459623e-004
      -1.52526860e-004 -1.18477976e-004 -4.89419290e-005
      -4.59908078e-005 -8.14779050e-005 -7.93605941e-005
      -2.15362597e-005 5.33332468e-006 3.17987142e-005 2.60930101e-005
      -3.07694718e-005 -8.04528900e-005 -8.09880585e-005
      -8.12119615e-005 -7.13470436e-005 -2.78523985e-005
      -3.96381947e-005 -4.01647230e-005 -2.53081635e-005
      -3.19219071e-005 -4.65799239e-005 -3.60522135e-005
      -2.53027411e-005 -1.19350225e-005 6.65535890e-006 8.28285647e-006
      8.53669917e-006 3.82563894e-006 -2.38446373e-005 -5.67742281e-005
      -4.90578750e-005 -5.68242285e-005 -5.99924715e-005
      -4.91061473e-005 -6.01739157e-005 -4.38032184e-005
      -2.13231106e-005 3.19704873e-006 2.35629705e-005 1.72146010e-005
      5.22700930e-006 4.00486130e-007 -3.90727910e-005 -1.92396055e-005
      9.69454413e-006 3.26144545e-005 -3.24189017e-007 -3.08933413e-005
      -2.40662939e-005 -3.38770624e-005 -5.23451199e-005
      -8.66697883e-005 -1.08076216e-004 -1.47222498e-004
      -8.96782003e-005 -1.79965409e-005 3.01537216e-006 7.92598348e-006
      1.00900015e-005 -1.57349496e-005 -3.60282393e-005 -6.58812423e-005
      -9.37462173e-005 -6.66637279e-005 -2.38550892e-005 2.41599673e-006
      1.24130302e-005 9.26335269e-006 -3.38498066e-005 -1.80902171e-005
      -1.31443612e-005 -2.59568424e-005 -3.87793334e-005
      -3.86692082e-005 -2.35073039e-005 1.59717838e-005 2.87603834e-005
      3.56871096e-005 2.91909637e-005 3.92044749e-005 5.28060752e-007
      -4.70348532e-005 -8.91395612e-005 -1.36366492e-004
      -1.18530224e-004 -4.72846841e-005 5.69316535e-006 3.50842238e-005
      3.45507906e-005 2.93696903e-005 5.06263677e-005 5.11039798e-005
      4.85727214e-005 4.92251893e-005 7.02082834e-005 1.00746191e-004
      1.91488325e-005 -6.17814731e-005 3.27197922e-005 2.24474516e-005
      -2.42173573e-005 -7.48150924e-005 -9.42475890e-005
      -7.85815646e-005 -6.75716874e-005 -3.82049002e-005 6.61147942e-006
      4.13443813e-005 7.92301580e-005 6.33699456e-005 4.96781722e-005
      9.27034343e-005 1.14743292e-004 9.25323548e-005 6.66225751e-005
      5.94613484e-005 5.68173673e-005 5.64198308e-005 1.60752029e-006
      -8.35088504e-005 -8.47324482e-005 -5.67646020e-005
      -1.73539775e-005 -3.60929807e-005 -7.82235584e-005
      -8.35352330e-005 -3.31869014e-005 6.00430803e-006 4.72983229e-005
      2.75389666e-005 -7.54783468e-006 -4.58410286e-005 -4.75214838e-005
      -3.00675765e-005 -3.60688250e-006 3.91256472e-005 3.32654345e-005
      5.58250795e-005 5.73613106e-005 4.67185273e-005 3.86970241e-005
      1.28934926e-005 -4.05305655e-005 -8.73325407e-005 -1.26733037e-004
      -1.04729595e-004 -1.96770925e-005 -1.52963185e-005
      -4.68581384e-005 -3.79791563e-005 4.54134715e-005 8.31665384e-005
      7.82092320e-005 4.74502231e-005 -8.62168326e-006 -5.58128704e-005
      -3.91526337e-005 -3.43751926e-005 -2.74202430e-005
      -3.98963402e-006 -2.08052188e-005 -2.71491190e-005
      -1.11248046e-005 -2.83169666e-005 -3.65499582e-005
      -4.02994810e-005 -2.37498680e-005 -6.27704230e-006 2.64357241e-005
      2.34566269e-005 2.10332055e-005 -2.00781396e-005 -4.97053406e-005
      -6.95259296e-005 -3.67157627e-005 -2.86214708e-005
      -5.04362324e-005 -3.19579522e-005 -2.62173508e-005
      -1.79173603e-005 -1.59555680e-006 4.39394353e-006 1.83314951e-005
      1.25380866e-005 -1.29020000e-005 -3.77330216e-005 -7.82666175e-005
      -7.18323499e-005 -4.61462550e-005 -2.13021431e-005
      -1.96547553e-005 -1.20547011e-005 8.51524783e-006 -9.98298333e-008
      -8.64593676e-006 -6.99853699e-005 -9.44756321e-005
      -1.08061140e-004 -7.66802987e-005 -2.04132011e-005 3.70549897e-005
      1.55768776e-005 -2.48125889e-005 -7.33017951e-005 -7.81431881e-005
      -8.49647404e-005 -8.04445153e-005 -5.04467753e-005
      -1.74644629e-005 1.51569757e-005 3.26165718e-005 -3.60143616e-007
      -2.87078747e-005 -1.09910925e-005 -1.31036977e-005
      -4.82688083e-005 -5.45355433e-005 -4.51911728e-005
      -4.01287507e-005 -2.72101042e-005 -1.57244506e-006 4.76712012e-006
      -2.10757935e-006 6.54206951e-006 6.55752001e-006 -2.25636049e-005
      -6.05828318e-005 -1.05755782e-004 -1.19508659e-004
      -4.96342218e-005 -4.44099578e-006 3.16097467e-005 6.43630028e-006
      3.61776711e-006 -1.58747775e-006 3.19664650e-005 3.15186735e-005
      3.62339524e-005 9.01495878e-005 9.54564021e-005 1.58358325e-005
      -4.73254549e-005 1.76839458e-005 -7.73826469e-006 -5.48748649e-005
      -9.96857925e-005 -1.16176125e-004 -9.18540609e-005
      -7.74167202e-005 -6.24481181e-005 -2.64438086e-006 7.29107196e-005
      1.20329234e-004 8.92805256e-005 5.85281305e-005 6.52129020e-005
      9.72381167e-005 1.00327248e-004 5.54735125e-005 2.33395622e-005
      3.57287427e-005 3.55624106e-005 -2.02847150e-005 -8.64808098e-005
      -9.18694495e-005 -7.42266639e-005 -2.66637217e-005
      -4.46433805e-005 -8.91972522e-005 -9.15789205e-005
      -3.82760009e-005 -1.01924861e-005 9.91680099e-006 -1.99703209e-005
      -4.15912145e-005 -4.67247373e-005 -5.11905637e-005
      -5.45849216e-005 -4.46145386e-005 -3.09576681e-005
      -2.86245631e-005 -1.19247661e-005 9.73180977e-006 1.77617876e-005
      1.54183526e-005 1.69901577e-005 -9.56133135e-006 -6.31331277e-005
      -9.36457800e-005 -8.18093977e-005 -1.58041985e-005
      -9.41257349e-006 -3.71812894e-005 -1.21001476e-005 6.06020512e-005
      9.22731415e-005 7.46080987e-005 5.91490934e-005 1.71886932e-005
      -8.90921569e-007 2.56489475e-005 3.26075788e-005 4.70159284e-006
      2.63222137e-006 -1.68272672e-005 -1.38465321e-005 -1.66470072e-005
      -3.54899094e-005 -4.20999750e-005 -5.74373735e-005
      -5.54627659e-005 -4.15266150e-005 -4.07261405e-006 1.80356055e-005
      2.40858189e-005 -2.54631868e-005 -6.15914178e-005 -3.51671115e-005
      -1.14882550e-005 -5.98267252e-006 -4.00454992e-005
      -2.56397489e-005 -1.29509235e-005 9.95128266e-006 1.73657190e-005
      9.36200286e-006 3.53874129e-005 2.18782134e-005 -4.59584271e-006
      -5.14617568e-005 -7.55646251e-005 -8.17831460e-005
      -6.07564180e-005 -3.00194806e-005 -1.05675076e-006 3.14611975e-006
      2.91751312e-005 2.15144701e-005 5.03944420e-006 -4.27568993e-005
      -4.46251543e-005 -5.29581594e-005 -1.66336413e-005 1.93481119e-005
      3.30087387e-005 5.53298923e-006 -4.58878640e-005 -8.90435331e-005
      -7.38282833e-005 -7.06486462e-005 -7.78905451e-005
      -3.13215132e-005 1.58768180e-005 1.18127127e-005 2.06796594e-005
      3.44889713e-006 4.17104275e-006 3.67095818e-005 2.76803166e-005
      -4.09993372e-005 -1.40845596e-005 -2.34021991e-005
      -5.01235991e-005 -1.42556200e-005 -5.72603903e-006
      -2.06547757e-005 -3.95287425e-005 -2.36155101e-005
      -1.67925282e-005 -1.49544494e-005 -5.67824609e-005
      -9.72890120e-005 -9.25904314e-005 -4.07658081e-005
      -3.05327267e-005 -1.63361256e-005 -2.59542758e-005
      -6.23896776e-005 -3.03932120e-005 1.18017215e-005 1.68458409e-005
      2.82662750e-005 6.41208972e-005 7.84662552e-005 1.70023250e-005
      -4.91079518e-005 -3.63195909e-006 -3.02978533e-005
      -6.54777323e-005 -9.83533100e-005 -1.27229549e-004
      -9.48592133e-005 -6.92885878e-005 -3.40813240e-005 4.43685894e-005
      1.19356082e-004 1.29387961e-004 7.37972441e-005 4.13476700e-005
      3.91195572e-005 4.88205551e-005 5.88100775e-005 1.58295334e-005
      -5.11868529e-006 1.08366612e-005 1.85731114e-005 -2.27735472e-005
      -7.11398970e-005 -8.22265356e-005 -6.35489996e-005
      -1.87690093e-005 -3.64021362e-005 -9.01192980e-005
      -9.27784713e-005 -5.63465837e-005 -3.49965121e-005
      -1.61914541e-005 -4.28050698e-005 -5.78833933e-005
      -5.30700163e-005 -7.89182013e-005 -9.23047628e-005
      -1.04449158e-004 -9.59007739e-005 -8.19323759e-005
      -5.22927039e-005 -5.59315013e-005 -2.24184441e-005 1.85243844e-005
      2.77427316e-005 1.55040398e-005 -2.64837927e-005 -7.32124317e-005
      -8.23350783e-005 -2.73913447e-005 -1.17856716e-005
      -1.69156774e-005 -1.78095388e-006 5.49625838e-005 5.63240246e-005
      7.26484905e-006 -3.57717727e-006 6.44384727e-006 4.54385299e-005
      7.09098531e-005 6.00856874e-005 2.74541326e-005 -5.44410295e-006
      -9.58236456e-007 -2.27644814e-005 7.52649930e-006 4.55582085e-006
      -1.25923980e-005 -5.89094270e-005 -7.19795426e-005
      -5.57005296e-005 -7.26715325e-006 8.32861133e-006 -1.51755485e-005
      -5.27171615e-005 -6.54110554e-005 -3.41008345e-005
      -1.23312220e-005 -1.81117230e-005 -4.07061088e-005
      -2.66301995e-005 -1.34068996e-005 1.16459041e-005 2.50474073e-007
      -1.01817750e-005 5.27235625e-006 3.34557012e-006 -2.98669129e-005
      -7.27071092e-005 -9.50306785e-005 -7.19511154e-005
      -5.47088566e-005 -2.29879515e-005 -1.48276013e-006
      -9.25455515e-006 1.27748026e-005 -1.05469769e-006 -3.49801521e-005
      -6.85214400e-005 -6.17027545e-005 -8.02836439e-005
      -4.34855247e-005 9.58526925e-006 1.24321205e-005 -1.19946271e-005
      -4.40843723e-005 -5.89642113e-005 -3.82509097e-005
      -4.39715477e-005 -6.59655125e-005 -2.72676371e-005 2.37155273e-005
      1.90506507e-005 1.04742312e-005 8.60207729e-006 5.19700779e-006
      3.92409056e-005 4.20336619e-005 -9.46451928e-006 -2.48705287e-008
      -2.38693592e-005 -5.50469958e-005 -3.63030194e-005
      -2.44681614e-005 -4.12948175e-005 -8.79589352e-005
      -8.60240179e-005 -5.67928873e-005 -2.61657497e-005
      -6.96743664e-005 -1.29300170e-004 -1.00649318e-004
      -5.02174116e-005 -3.84114501e-005 -4.29001411e-005
      -7.94590233e-005 -9.05993293e-005 -3.90546520e-005
      -5.55458155e-006 1.47776254e-005 1.26590039e-005 4.31008993e-005
      8.04346637e-005 4.71222083e-005 -2.19654430e-005 -2.38259581e-005
      -4.29824941e-005 -6.99347802e-005 -1.03515209e-004
      -1.30525179e-004 -1.11779846e-004 -5.05953321e-005 2.76757582e-005
      9.29315647e-005 1.23774022e-004 1.17969990e-004 4.48733517e-005
      1.23093632e-005 4.22483254e-006 -4.98739291e-006 -2.04192311e-005
      -4.27787236e-005 -3.11027688e-005 -7.66032736e-006 1.06039970e-005
      -2.33402279e-005 -6.68562279e-005 -8.58395942e-005
      -6.36710101e-005 -4.69152610e-006 -2.16368016e-006
      -5.12130973e-005 -6.53807365e-005 -3.39956532e-005
      -3.48502035e-005 -2.55212271e-005 -4.45117585e-005
      -5.76775419e-005 -5.79959742e-005 -9.18506048e-005
      -1.03920946e-004 -1.20979515e-004 -1.08093314e-004
      -1.07789187e-004 -1.01311358e-004 -8.28920529e-005
      -5.93488294e-005 -2.01135954e-005 3.65402957e-005 5.21140719e-005
      4.79931600e-007 -4.44633115e-005 -7.22491968e-005 -4.07685911e-005
      -2.26395259e-005 -5.41472327e-005 -5.22097544e-005
      -1.56131609e-005 -2.56736275e-005 -5.15804204e-005
      -5.70723714e-005 -3.61030470e-005 7.05340972e-006 5.02959883e-005
      4.56395210e-005 -8.95328640e-007 -2.79970791e-005 -5.06245015e-005
      -4.86479366e-005 4.16198009e-006 3.35012955e-005 -1.19417618e-005
      -7.02369070e-005 -6.27179397e-005 -4.64356890e-005
      -1.33821250e-005 -2.25590175e-005 -5.08653247e-005
      -6.27694317e-005 -4.31663539e-005 1.19382975e-007 3.11021977e-005
      1.19603455e-005 -1.55536945e-005 -5.93848881e-006 3.83110000e-006
      -3.07305277e-006 -3.59330043e-005 -4.69059814e-005
      -1.90620412e-005 -7.58258057e-006 -1.81524974e-005
      -5.82252542e-005 -8.50759970e-005 -5.72081335e-005
      -3.36139965e-005 -1.33029343e-005 2.49277091e-005 1.16073807e-005
      1.76880640e-005 2.05664019e-005 -1.28157080e-006 -3.99396122e-005
      -5.20314279e-005 -6.24730092e-005 -8.19856632e-006 4.52305285e-005
      4.60946358e-005 4.04476814e-005 2.59471235e-005 5.51389530e-006
      7.66096582e-006 -2.77652161e-005 -5.39680295e-005 -4.68818962e-006
      2.06742116e-005 7.99460850e-006 -1.12796570e-005 -3.03030356e-005
      -2.93494504e-005 6.02909631e-006 4.19662001e-006 -1.78083337e-005
      -8.70272561e-006 -1.78006612e-005 -4.39689866e-005
      -4.21841250e-005 -2.42070164e-005 -6.17685801e-005
      -9.37964505e-005 -8.47921401e-005 -6.79787117e-005
      -4.28188396e-005 -4.26094921e-005 -6.79354853e-005
      -9.52019254e-005 -5.52440433e-005 -4.35829243e-005
      -4.19449862e-005 -5.04787859e-005 -6.22534717e-005
      -1.63500172e-005 -7.11554549e-007 5.91553726e-006 -1.81732721e-005
      3.36525118e-005 7.88663019e-005 5.39247667e-005 -1.26910545e-005
      -1.60950494e-005 -3.15084544e-005 -6.63871469e-005
      -9.69750545e-005 -9.75076109e-005 -8.37599073e-005
      -3.33199678e-005 5.33070488e-005 9.82539859e-005 1.09907320e-004
      9.15306591e-005 2.23988627e-005 -3.02112294e-005 -4.32325105e-005
      -6.00044368e-005 -8.05421878e-005 -7.85507436e-005
      -6.70383088e-005 -4.22997691e-005 -1.00153129e-005
      -1.76619142e-005 -4.66859019e-005 -5.22771952e-005
      -3.31407537e-005 3.46125125e-005 4.41023694e-005 2.44292642e-005
      2.55061323e-008 1.29759483e-005 2.78902439e-006 2.10860962e-005
      1.47132459e-005 -2.49303102e-005 -4.54871661e-005 -7.42885750e-005
      -5.94812409e-005 -5.34572246e-005 -3.15245888e-005
      -6.58045028e-005 -1.03446808e-004 -1.10848807e-004
      -9.06217319e-005 -4.46437843e-005 2.56560725e-006 -3.28819260e-006
      -2.42309725e-005 -4.45098703e-005 -4.59772127e-005
      -2.91092674e-005 -3.32493692e-005 -5.68892028e-005
      -7.97284738e-005 -5.94655612e-005 -7.70630504e-005
      -9.78633907e-005 -1.06566862e-004 -7.96278619e-005
      -2.27573364e-005 5.36556363e-005 3.06086113e-005 -1.62979013e-005
      -4.88298319e-005 -7.61760675e-005 -5.00943497e-005 1.39310341e-005
      1.83954253e-005 -1.49900288e-005 -5.46496594e-005 -4.20922806e-005
      -3.33990138e-005 -2.89628006e-005 -4.54442961e-005
      -7.72684070e-005 -7.14741691e-005 -5.45022558e-005 1.12461012e-005
      4.98397130e-005 2.98346476e-005 -7.06526043e-006 -1.34731254e-005
      -1.01435844e-005 -4.06668660e-005 -7.84348085e-005
      -5.87840259e-005 -2.12084669e-005 -9.21671108e-006 3.88605395e-006
      -1.62147899e-005 -5.16911678e-005 -4.35714937e-005
      -1.70075546e-005 1.49261432e-005 3.56722048e-005 2.54514925e-005
      6.96486677e-005 4.81334719e-005 3.00311967e-005 -5.05287744e-006
      -4.96619505e-005 -7.36164875e-005 -7.68043628e-006 4.07913576e-005
      4.04127240e-005 5.06517099e-005 4.11021647e-005 3.30867297e-005
      2.50395024e-005 -3.46537709e-005 -6.51849914e-005 -2.94856545e-005
      1.26276573e-005 -8.49804837e-006 -3.73471048e-005 -4.20960932e-005
      -5.57575368e-005 -2.77318359e-005 -1.03161428e-005
      -1.71566589e-005 -6.39577638e-006 -1.03970542e-005
      -2.68337390e-005 -2.38595003e-005 -1.63696441e-005
      -3.69613808e-005 -7.49394385e-005 -7.54977445e-005
      -6.70672453e-005 -3.71239585e-005 -3.22757660e-005
      -5.61474335e-005 -8.68099523e-005 -4.02841870e-005
      -1.45784952e-005 -2.18517343e-005 -2.80289332e-005
      -2.76475439e-005 1.39012755e-005 1.26223795e-005 -2.95975974e-006
      -3.83107799e-005 5.26153508e-006 6.18981285e-005 4.13505695e-005
      -1.04795490e-005 -1.92602147e-006 -2.48156521e-005
      -3.97392905e-005 -7.09970845e-005 -8.87928400e-005
      -6.46064145e-005 -9.45146712e-006 6.79215227e-005 8.99552178e-005
      9.31025352e-005 9.08329675e-005 2.49589648e-005 -2.33633855e-005
      -5.42030102e-005 -7.44878271e-005 -1.10211142e-004
      -7.46498772e-005 -5.79986263e-005 -4.35218244e-005
      -9.75195326e-006 -8.76938975e-006 -1.99505484e-005 3.59054843e-006
      3.33905555e-005 8.84635519e-005 9.89906257e-005 8.18424814e-005
      3.80587735e-005 3.42118910e-005 4.74853186e-005 7.98729161e-005
      3.83250008e-005 -1.62395845e-005 -3.95030511e-005 -2.78386906e-005
      7.62997388e-006 4.53206812e-005 5.83919791e-005 -7.66388621e-006
      -5.97743565e-005 -7.77771202e-005 -4.07762782e-005
      -1.20993918e-005 2.73503374e-005 4.99228736e-006 -2.29292418e-005
      -2.62933027e-005 -3.32143973e-005 -1.26178047e-005
      -2.02890969e-005 -5.94345620e-005 -8.30481804e-005
      -7.46072110e-005 -7.77959795e-005 -7.51576808e-005
      -7.21824836e-005 -5.58420470e-005 3.38517407e-006 7.16304057e-005
      4.23207530e-005 -1.33345620e-005 -3.21330153e-005 -5.20528665e-005
      -2.09464561e-005 1.36334738e-005 1.05245108e-005 -2.74900849e-005
      -6.50416041e-005 -6.74063194e-005 -5.80913475e-005
      -7.20680546e-005 -7.38976451e-005 -8.22257716e-005
      -7.81853159e-005 -5.17528388e-005 1.57403902e-005 5.17594453e-005
      4.95808781e-005 4.98776581e-006 -1.35009277e-005 -4.06651634e-005
      -7.77179011e-005 -1.20397570e-004 -8.72313030e-005
      -3.02011376e-005 1.19405458e-005 3.19350802e-005 2.36281467e-005
      -2.51777346e-005 -2.70110831e-005 5.14420208e-006 2.02605843e-005
      1.24918242e-005 -4.09317590e-006 5.37665474e-005 4.29002721e-005
      3.29864015e-005 7.83889755e-006 -5.60166445e-005 -8.61556036e-005
      -5.38835120e-005 -4.25499184e-006 -5.20052527e-006
      -1.30645930e-007 -9.29413909e-006 -1.79611961e-005
      -2.35837288e-005 -7.66662561e-005 -1.08690838e-004
      -8.76452905e-005 -4.24896243e-005 -3.53385767e-005
      -6.25054090e-005 -7.96722234e-005 -7.27221341e-005
      -3.43894608e-005 -2.58514101e-005 -1.46622815e-005 4.14935676e-006
      1.25621136e-006 -3.49670991e-005 -2.11280258e-005 -3.49720449e-006
      -2.19082922e-005 -5.03657575e-005 -5.74536971e-005
      -5.29134413e-005 -1.69133527e-005 -7.36742140e-006
      -3.28678616e-005 -4.24192222e-005 -2.21514292e-005
      -2.27859309e-005 -1.55785510e-005 -1.49765747e-005 7.24793472e-006
      2.51817964e-005 -7.74865111e-006 -3.90859641e-005 -5.91094104e-005
      -1.56571623e-005 3.44539476e-005 1.55161997e-005 -3.39204125e-005
      9.53186736e-006 -1.66297614e-005 -2.40942300e-005 -4.59658331e-005
      -5.35912695e-005 -1.61543012e-005 2.30000514e-005 7.58331225e-005
      9.39901001e-005 8.22563816e-005 7.08842490e-005 1.91046383e-005
      -5.03970296e-006 -3.80473466e-005 -7.23450794e-005
      -8.56283878e-005 -5.88185176e-005 -2.43591512e-005 7.92569972e-006
      2.82258225e-005 1.07463493e-005 1.16038646e-005 4.81567768e-005
      1.00101963e-004 1.29924389e-004 1.29615451e-004 8.03531293e-005
      1.93653614e-005 1.84628807e-005 6.29411661e-005 9.90996850e-005
      6.43883614e-005 -5.89610863e-006 -2.33626288e-005 4.28344219e-006
      6.54821197e-005 1.03355211e-004 1.00566147e-004 3.60225749e-005
      -1.35468633e-006 -1.02044205e-005 -1.80488973e-006 1.78348637e-005
      3.98452430e-005 3.30017392e-005 2.61843052e-005 2.00777195e-005
      -5.62377181e-006 -1.63358127e-005 -2.59292956e-005
      -6.61327285e-005 -9.38228186e-005 -6.65159823e-005
      -5.13253362e-005 -4.43637546e-005 -1.61818825e-005
      -3.46285105e-006 3.69513364e-005 7.95390952e-005 4.28692983e-005
      -3.60715130e-005 -5.53143072e-005 -5.37726410e-005
      -2.41501039e-006 3.55895500e-005 2.96586622e-005 -1.14266559e-005
      -2.19377816e-005 -9.70316887e-006 -2.77339277e-005
      -7.98610781e-005 -1.01248457e-004 -1.05097177e-004
      -9.51335824e-005 -6.18004124e-005 -9.05844081e-006 2.65895433e-005
      4.59003531e-005 1.82630629e-005 1.02392187e-005 -3.16309961e-005
      -6.70018053e-005 -1.02824000e-004 -8.41008296e-005
      -3.15759971e-005 3.98292468e-005 7.27582810e-005 5.06539618e-005
      1.96630626e-005 1.65363363e-005 3.08409035e-005 2.22650997e-005
      1.72222299e-005 1.48585386e-005 4.93470616e-005 5.35349645e-005
      4.66777237e-005 1.92826046e-005 -6.33352101e-005 -8.48521813e-005
      -3.82889848e-005 -1.51715285e-005 -8.82997085e-007 3.14086810e-006
      8.55822600e-006 -8.79445543e-006 -2.42138485e-005 -6.87252032e-005
      -9.23573098e-005 -8.37809785e-005 -6.31041112e-005
      -7.37316295e-005 -7.34625573e-005 -8.31159341e-005
      -5.69684089e-005 -8.41914880e-006 5.88728290e-006 7.21372226e-006
      6.25803477e-006 -7.09574579e-006 -4.40402910e-005 -1.03977363e-005
      9.61628984e-007 -1.05799973e-005 -2.48239448e-005 -4.17780393e-005
      -4.50479783e-005 -5.07409914e-006 1.51208242e-005 7.96862787e-006
      -7.80121263e-006 -4.35777883e-006 -1.33560397e-005
      -5.77228138e-006 1.43513262e-005 4.93601110e-005 3.71148235e-005
      -6.67796576e-006 -5.74460319e-005 -6.47370834e-005
      -1.74474335e-005 2.51178117e-005 -8.03052558e-007 -6.02620785e-005
      1.36893859e-005 -6.59393982e-006 -1.50465894e-005 -1.72826567e-005
      -1.26508357e-005 -2.23222942e-005 1.33865360e-005 6.27253539e-005
      6.93713300e-005 6.43035455e-005 3.85018393e-005 -8.13106453e-006
      -1.13199394e-006 -1.95453413e-005 -5.75650120e-005
      -6.50344737e-005 -3.05582216e-005 -7.30011016e-006 2.35377429e-005
      4.07781299e-005 2.77847885e-005 3.62704995e-005 4.99899324e-005
      7.47824597e-005 1.18211072e-004 1.00303056e-004 4.32500383e-005
      1.91587128e-006 3.28627284e-005 6.49528083e-005 1.08944929e-004
      8.71378434e-005 4.44575817e-005 6.14006058e-006 2.01541116e-005
      7.00302044e-005 8.95699486e-005 9.94390430e-005 4.02870828e-005
      2.22980943e-005 2.64743485e-005 2.04796852e-005 3.96747309e-005
      3.65960550e-005 4.59497314e-005 6.18969134e-005 5.71867022e-005
      3.84857012e-005 2.13104850e-005 -6.16618718e-006 -4.94929918e-005
      -1.03104321e-004 -8.37183688e-005 -7.23829871e-005
      -5.92885372e-005 -2.54304832e-005 -1.63022037e-006 2.18211735e-005
      3.30634102e-005 -1.87141468e-005 -7.74942964e-005 -9.41978797e-005
      -8.69471696e-005 -2.33853189e-005 4.37426461e-005 3.41966916e-005
      -3.73461671e-006 1.16481345e-007 2.24275263e-005 1.44049591e-005
      -3.90515524e-005 -9.80736586e-005 -1.16168550e-004
      -1.09175206e-004 -9.85738880e-005 -4.48149258e-005 8.22248694e-006
      2.55185696e-005 6.74047533e-006 9.93254707e-006 -1.51548957e-005
      -5.39838402e-005 -8.46067996e-005 -4.86665631e-005
      -1.74708548e-005 4.63297547e-005 7.56283553e-005 7.39074312e-005
      6.48409696e-005 6.80627563e-005 6.31006042e-005 4.70839659e-005
      9.60081252e-006 1.25925399e-005 3.95921816e-005 4.41472039e-005
      2.68995518e-005 -2.12305458e-005 -5.11676844e-005 -5.33640487e-005
      -2.17574761e-005 -4.01900252e-006 1.19492679e-005 2.74961913e-005
      6.38505953e-005 5.47162090e-005 3.66620880e-005 -5.38782524e-006
      -6.42045634e-005 -6.91564637e-005 -7.45891375e-005
      -8.00279158e-005 -7.74317814e-005 -6.89279404e-005
      -1.90288411e-005 5.20525718e-005 7.78817921e-005 4.44121943e-005
      2.72184661e-005 8.06823755e-006 -1.50767146e-005 -1.55175144e-006
      -1.35624368e-005 -4.96624234e-005 -6.02932523e-005
      -6.29521601e-005 -4.23779384e-005 1.31135778e-006 2.12108989e-005
      6.37371022e-006 3.03258639e-006 -1.45640606e-005 -2.34671097e-005
      -3.29404156e-006 7.17240800e-006 4.66438396e-005 3.73598632e-005
      -1.57989252e-005 -4.33756177e-005 -4.89260929e-005
      -1.66255450e-005 8.21741378e-006 -2.27645560e-005 -7.04891645e-005
      3.63607396e-005 1.33758695e-005 -1.86955695e-005 -2.60103698e-005
      -1.07020060e-005 -9.89178261e-006 2.13503995e-006 4.75063389e-005
      5.93401855e-005 3.46531087e-005 3.16755609e-006 -3.18917191e-005
      -2.23611405e-005 -2.22499057e-005 -4.76321511e-005
      -5.21793518e-005 -1.68573770e-005 1.35736564e-005 2.08552137e-005
      2.75747370e-005 3.52728675e-005 3.36424055e-005 3.49593211e-005
      3.79262892e-005 4.68684739e-005 3.93637019e-005 6.50164611e-006
      9.92472360e-006 3.51165836e-005 5.86527603e-005 1.03845952e-004
      9.70233232e-005 6.27132249e-005 2.78866355e-005 2.39255824e-005
      6.43826424e-005 7.20339594e-005 5.75571394e-005 6.23932283e-006
      -7.41343592e-006 8.25560983e-006 1.40712773e-005 1.99008609e-005
      2.85174501e-005 1.97154986e-005 2.75408365e-005 3.60062986e-005
      2.82498258e-005 1.77726761e-005 -3.47001405e-005 -8.27592521e-005
      -1.07479369e-004 -7.16143259e-005 -6.69314541e-005
      -4.35973707e-005 -7.11595158e-006 1.20094574e-005 1.27069206e-005
      7.09657661e-006 -4.89282502e-005 -1.14561757e-004 -1.17996788e-004
      -1.03847997e-004 -6.20027713e-005 -7.85405700e-006
      -1.63119385e-005 -4.67238242e-005 -2.81194916e-005 1.69716423e-005
      2.07598641e-005 -4.79957926e-005 -1.03834733e-004 -1.37418087e-004
      -1.14129820e-004 -1.03046506e-004 -4.35885158e-005 1.11234267e-005
      2.12772975e-005 -3.89254956e-006 2.22209856e-005 7.03849810e-006
      -2.95705468e-005 -6.57694691e-005 -4.60487936e-005
      -1.55677590e-005 3.10653595e-005 6.04320594e-005 5.53329301e-005
      4.95652093e-005 3.98217526e-005 4.67872451e-005 3.98967313e-005
      4.09477288e-005 2.11985625e-005 3.45093213e-005 3.05549584e-005
      -8.35288938e-006 -3.18397360e-005 -4.16338262e-005
      -3.89873931e-005 -2.30905553e-005 -1.76280264e-005 6.79213053e-006
      4.11287510e-005 8.46974799e-005 9.21789324e-005 7.61823030e-005
      4.01366960e-005 -7.08413791e-006 -1.05649688e-005 -3.02651151e-005
      -6.14475648e-005 -6.83700491e-005 -4.95567328e-005 2.11902898e-005
      8.59516513e-005 1.09358392e-004 5.73068864e-005 3.22438063e-005
      -5.75794320e-006 -1.42017179e-005 -2.35379448e-005
      -4.40646691e-005 -7.06187493e-005 -8.43802554e-005
      -6.59226498e-005 -1.07413262e-005 4.01884172e-005 2.62642625e-005
      1.48947029e-005 -8.22352195e-006 -4.61499758e-006 -2.46569671e-005
      -7.04973036e-006 -8.08481582e-006 3.48377434e-005 5.29681129e-005
      1.57983850e-005 -6.18235117e-006 -1.85297122e-005 4.52923859e-006
      3.01087289e-006 -3.05878457e-005 -1.03583239e-004 3.43060419e-005
      6.88574744e-007 -2.30871410e-005 -3.42479470e-005 -2.52061636e-005
      -2.17277993e-005 7.66849007e-006 6.44664688e-005 6.96371862e-005
      1.61298540e-005 -3.75754353e-005 -4.92921754e-005 -4.08271335e-005
      -3.44332802e-005 -3.49302936e-005 -3.86527863e-005
      -1.59023948e-005 1.78711343e-005 1.08158274e-005 2.23036459e-005
      1.62617034e-005 1.65272413e-005 4.03694366e-006 -6.33782383e-006
      -2.03901218e-005 -3.86885295e-005 -4.36979608e-005
      -3.87629989e-005 -8.69729047e-006 2.36978758e-005 7.25149439e-005
      7.32121698e-005 4.19789576e-005 -1.19705546e-005 -1.77945458e-005
      2.97763891e-005 5.49562246e-005 2.74485792e-005 -3.76352291e-005
      -5.34748069e-005 -2.62483118e-005 -1.52033108e-005 5.69799477e-006
      -3.18189632e-006 -1.52137136e-005 -2.84165926e-005
      -2.00144841e-005 -2.05960750e-005 -3.10378273e-005
      -6.75892516e-005 -9.51545007e-005 -9.17804427e-005
      -8.45691538e-005 -5.42695634e-005 -2.99990897e-005
      -2.00517443e-005 -7.17214925e-006 7.77591868e-006 1.69841371e-006
      -5.68631331e-005 -1.08265820e-004 -1.01174664e-004
      -9.53099152e-005 -7.79490729e-005 -5.64650400e-005
      -6.39876816e-005 -7.48675884e-005 -4.21301047e-005 4.22485664e-006
      2.16003355e-006 -3.95428251e-005 -1.09504101e-004 -1.21454272e-004
      -1.16060291e-004 -7.38091694e-005 -4.72039465e-005
      -2.56007934e-005 -1.50556771e-005 -2.17013621e-005 2.93607973e-005
      2.16280150e-005 -3.91286540e-006 -4.63753204e-005 -3.57452445e-005
      -1.12098978e-005 -1.70252349e-006 1.33951926e-005 1.10589808e-005
      1.95484718e-005 2.43811701e-005 3.79212761e-005 5.79960652e-005
      6.03309527e-005 6.30748109e-005 8.89835355e-005 4.00572608e-005
      1.93713845e-006 1.42595707e-006 -5.59748059e-006 -2.43542963e-005
      -3.11133408e-005 -2.93821631e-005 -1.09213879e-005 2.79051983e-005
      4.71664607e-005 6.76637792e-005 8.24982490e-005 7.40543255e-005
      5.44437571e-005 3.97960357e-005 3.47682326e-005 -2.44803905e-005
      -5.88553594e-005 -4.29131360e-005 1.58667626e-005 7.36886941e-005
      9.15300116e-005 4.94237538e-005 1.18511070e-005 1.50667120e-006
      -1.98831676e-005 -3.30895818e-005 -5.25579271e-005
      -7.53296554e-005 -8.13879815e-005 -3.74390838e-005 4.19867101e-005
      8.35723331e-005 7.32240296e-005 4.55625413e-005 3.54346812e-005
      2.23594634e-005 -9.05437730e-007 1.86780326e-005 1.04114733e-005
      3.78887307e-005 3.28658862e-005 2.59975041e-005 1.94793247e-005
      -4.62636217e-006 1.07041831e-006 9.26110806e-006 -5.56511222e-005
      -1.19998163e-004 7.19681921e-005 3.23570130e-005 -1.35128648e-005
      -4.76955720e-005 -5.61294291e-005 -5.04774434e-005
      -2.55091672e-005 5.15202591e-005 6.76248819e-005 4.52101449e-006
      -3.78412187e-005 -4.50691987e-005 -5.23592862e-005
      -4.16154508e-005 -3.09670359e-005 -2.16714579e-005 5.18156298e-007
      1.33688063e-005 3.17241370e-006 -7.32917260e-006 -2.40743211e-005
      -5.39672255e-005 -4.60689735e-005 -7.09304295e-005
      -7.36067959e-005 -1.07967709e-004 -1.29783424e-004
      -1.15210481e-004 -7.59152463e-005 -3.51914568e-005 1.84837390e-005
      3.57693061e-005 8.90492356e-006 -5.02813818e-005 -4.21211371e-005
      -6.27211921e-006 2.82244328e-005 7.03055230e-006 -6.38211932e-005
      -7.69541657e-005 -4.35042930e-005 -1.87765982e-005
      -3.68438814e-005 -2.30208807e-005 -1.18363223e-005
      -1.70881322e-005 -1.72927066e-005 -3.17750273e-005
      -6.23178930e-005 -8.88603536e-005 -7.98335968e-005
      -8.10209967e-005 -8.27141776e-005 -4.52145687e-005
      -1.97957743e-005 -1.53805231e-005 -1.06844163e-005
      -2.34937602e-006 -1.45802233e-005 -3.95837451e-005
      -8.20848945e-005 -8.24857780e-005 -8.08619952e-005
      -7.25422578e-005 -6.89429216e-005 -7.67809906e-005
      -7.54750872e-005 -3.61279490e-005 4.90844059e-006 -1.17988820e-005
      -4.24738391e-005 -8.45234899e-005 -8.65246548e-005
      -9.29504677e-005 -5.22544797e-005 1.46970456e-006 1.22388610e-005
      1.96699621e-005 8.37959669e-006 5.08912526e-005 2.41295274e-005
      -1.94215409e-005 -3.99120618e-005 -3.12507582e-005
      -2.80254608e-005 -2.97365787e-005 -4.60390220e-005
      -5.48684475e-005 -3.99182391e-005 -2.48280976e-005
      -9.09146911e-006 1.45305348e-005 2.44581734e-005 4.55138725e-005
      7.72071799e-005 4.14494643e-005 1.80783047e-006 -4.95477843e-006
      -3.02050212e-005 -6.73407776e-005 -7.83226860e-005
      -6.84796760e-005 -3.38756145e-005 -1.22171523e-005
      -4.16876856e-006 2.46152067e-005 5.66526651e-005 7.25651698e-005
      5.02691582e-005 3.73664043e-005 4.22200646e-005 -8.21009621e-007
      -3.39142316e-005 -1.45789554e-005 3.84974956e-005 9.54667194e-005
      7.24176425e-005 3.94298550e-005 4.47040438e-005 3.65721862e-005
      6.31429521e-006 -1.69425148e-005 -6.92629183e-005 -7.52828273e-005
      -5.65853043e-005 -1.62471206e-005 6.17306941e-005 9.84208236e-005
      8.33614395e-005 4.13857451e-005 3.52005882e-005 3.75576019e-005
      2.93752291e-005 3.82622275e-005 1.53590481e-005 1.77548191e-005
      1.98461089e-006 1.51734321e-006 1.32983951e-006 -1.40090542e-005
      -4.65913354e-006 5.65509981e-006 -5.87237482e-005 -1.20143413e-004
      8.88409413e-005 3.70324124e-005 -1.71117827e-005 -5.89286865e-005
      -7.66889352e-005 -9.54127099e-005 -6.37944904e-005 1.39934209e-005
      2.51487891e-005 2.00178397e-006 -9.86095529e-006 -1.95097091e-005
      -3.42324674e-005 -2.16034168e-005 -1.66515783e-005
      -7.52259484e-006 2.10487610e-006 -6.86249041e-006 -1.61306962e-005
      -4.23773417e-005 -5.57226231e-005 -7.99019108e-005
      -7.06205028e-005 -8.45091708e-005 -9.83942809e-005
      -1.35369453e-004 -1.52070701e-004 -1.38740754e-004
      -7.67060483e-005 -4.80849849e-005 -1.96806027e-007 2.22841973e-005
      7.88103625e-006 -1.76635313e-005 -7.17124522e-006 2.94026881e-006
      3.70136186e-005 2.76575774e-005 -2.38381272e-005 -2.03221771e-005
      -2.20696916e-006 -7.74867203e-006 -4.99807975e-005
      -1.23810942e-005 2.83387089e-005 3.52547577e-005 2.24166197e-005
      -2.10883718e-005 -5.27322954e-005 -6.65736443e-005
      -5.32202430e-005 -2.67234464e-005 -2.73390069e-005
      -2.77673062e-005 -2.11834013e-005 9.06706009e-006 3.15195648e-005
      2.62340691e-005 2.54131210e-005 9.24368464e-007 -3.06133188e-005
      -5.77624087e-005 -6.83763064e-005 -7.72813728e-005
      -5.93814439e-005 -6.30583818e-005 -4.95618879e-005 7.53997938e-006
      4.69701154e-005 4.46800004e-005 5.26908480e-006 -3.35390141e-005
      -4.03988925e-005 -7.57076632e-005 -6.40498401e-005 6.27598911e-006
      2.92736731e-005 3.84839768e-005 2.30955866e-005 4.75274974e-005
      1.78845621e-005 -1.60490927e-005 -1.48508916e-005 1.45491795e-005
      7.46557953e-006 5.58443526e-006 -9.13243639e-006 -3.23507884e-005
      -9.92192145e-006 -5.59567661e-006 -3.03072557e-006 8.95531775e-006
      2.22693834e-005 3.28592214e-005 5.73613215e-005 2.45192805e-005
      1.53372421e-005 1.97904137e-006 -4.05560741e-006 -2.91001234e-005
      -4.28979656e-005 -4.86018616e-005 -4.49497493e-005
      -4.53234461e-005 -5.07350305e-005 -1.20360091e-005 2.24942924e-005
      3.06364454e-005 3.07186820e-005 3.84767154e-005 3.94000745e-005
      -1.06089499e-006 6.05377500e-006 3.54800286e-005 7.12536639e-005
      6.52026647e-005 4.80350400e-006 1.33442961e-006 3.14457830e-005
      2.98503583e-005 1.55835824e-005 9.30493297e-006 -2.00531285e-005
      -1.69611667e-005 -2.17879533e-005 6.80216044e-006 4.89318591e-005
      8.68982243e-005 4.53030516e-005 2.44147359e-005 2.56192416e-005
      2.61877685e-005 3.22887499e-005 3.70164562e-005 -1.13578271e-005
      -1.94106196e-005 -2.48903561e-005 -2.72606339e-005
      -1.72077489e-005 -2.04268345e-005 -4.98512918e-006
      -6.45531418e-006 -5.77975916e-005 -1.19328550e-004 8.38297492e-005
      3.63869985e-005 -2.40769750e-005 -6.96994175e-005 -1.01913683e-004
      -1.17754265e-004 -7.96789609e-005 -1.45040940e-005 1.09931634e-005
      -2.77021695e-006 1.24187463e-005 2.27386681e-005 2.18274781e-005
      1.66623304e-005 2.80254590e-005 4.91400424e-005 5.41361878e-005
      2.18079276e-005 -1.02188415e-005 -4.71628482e-005 -5.74577825e-005
      -6.19313432e-005 -5.86131318e-005 -7.97631801e-005
      -9.74921495e-005 -1.03983657e-004 -1.26372033e-004
      -1.26329352e-004 -5.33827588e-005 -3.36336743e-005 8.52825633e-006
      3.52919451e-005 2.69122884e-005 2.14996271e-005 3.23906970e-005
      4.56102207e-005 6.04030429e-005 3.91604808e-005 3.99018754e-005
      4.27234590e-005 3.76114185e-005 -1.13322176e-005 -2.13987059e-005
      3.29930699e-005 5.88271250e-005 6.20172796e-005 4.60606425e-005
      -1.15950104e-006 -4.16325274e-005 -2.65585186e-005
      -4.34621006e-006 1.70047497e-005 3.41177583e-005 2.32092698e-005
      3.09943061e-005 5.59010077e-005 6.52473536e-005 6.76010386e-005
      5.31771730e-005 8.94257846e-006 -2.52950649e-005 -5.46656411e-005
      -7.34036803e-005 -6.12631629e-005 -3.20198742e-005
      -2.63099246e-005 -1.68620845e-005 2.61206151e-005 9.22417312e-005
      8.39430577e-005 5.88732619e-005 1.31655852e-005 -5.94563653e-006
      -6.00663734e-005 -6.59017678e-005 -1.93579290e-005 5.11541475e-006
      -6.49568335e-007 2.39993497e-005 5.61558845e-005 4.63174592e-006
      -8.60061482e-006 -5.21945458e-006 2.45316696e-005 3.96907126e-006
      -1.18714597e-005 1.33212598e-005 5.24817824e-006 2.42451006e-005
      3.04871046e-005 2.71595600e-005 4.48233186e-005 6.40424187e-005
      3.41066370e-005 3.15920661e-005 1.73790431e-006 -2.11470137e-006
      1.94964759e-005 1.66647442e-005 2.73618002e-006 3.90632476e-006
      -3.57481294e-005 -3.95693096e-005 -3.48844769e-005
      -4.02643018e-005 -3.12196498e-005 -1.91218351e-005 1.96767246e-006
      2.58044256e-005 5.84461814e-005 2.97608458e-005 2.13786425e-005
      2.97946444e-005 5.72226127e-005 6.00676394e-005 3.27811795e-005
      -2.53619764e-005 -6.81635754e-007 2.85828864e-005 3.20002800e-005
      1.19016249e-005 3.79268058e-005 2.17539655e-005 3.04920432e-005
      1.58419789e-005 2.39050769e-005 2.37146269e-005 3.10418473e-005
      1.13903543e-005 1.04186838e-005 2.77719610e-005 3.68891378e-005
      5.12806873e-005 8.12622511e-006 -4.60577357e-005 -5.21263610e-005
      -4.12339905e-005 -3.36567282e-005 -2.00629165e-005
      -1.99305814e-005 -8.12531925e-006 1.90615847e-005 -4.05273277e-005
      -9.47794470e-005 9.44149942e-005 4.71912062e-005 -9.06895457e-006
      -5.82078901e-005 -1.00142643e-004 -1.10193163e-004
      -7.32892149e-005 -2.91374417e-005 -2.09784539e-005
      -1.39480644e-005 1.18894313e-005 3.43050233e-005 4.90709899e-005
      5.07409350e-005 4.20694960e-005 6.02897817e-005 7.16002396e-005
      3.28571659e-005 -9.52880782e-007 1.16427270e-006 -4.52685026e-006
      -1.34940337e-005 -1.17541031e-005 -4.42671080e-005
      -6.60917794e-005 -5.91260250e-005 -8.13942243e-005
      -7.97506145e-005 -2.54523293e-005 2.02143929e-005 4.07447842e-005
      6.56102857e-005 6.12484218e-005 5.97683611e-005 7.58228343e-005
      8.33011945e-005 7.44184363e-005 7.91720886e-005 8.21164213e-005
      6.24386957e-005 3.00135671e-005 -9.94728180e-006 -2.17662728e-005
      3.67938446e-005 6.84942715e-005 6.21104919e-005 3.76972785e-005
      -6.96520965e-006 -3.63992585e-005 -2.08539568e-005 1.13928936e-005
      3.21892621e-005 4.73363216e-005 3.36584853e-005 3.74821211e-005
      5.51366320e-005 6.28047565e-005 7.22106779e-005 4.61727213e-005
      1.43980551e-005 -2.14440006e-005 -6.21577492e-005 -8.83163593e-005
      -7.52268606e-005 -1.60488817e-005 -6.16097441e-006
      -6.66583173e-006 2.67814376e-005 5.92839642e-005 9.00911909e-005
      7.09670276e-005 1.54474201e-005 -1.44350643e-005 -5.29823228e-005
      -5.87599716e-005 -3.73431358e-005 -2.42971983e-005
      -1.15664943e-005 3.06698748e-005 4.25242688e-005 -1.72667660e-005
      -3.31200790e-005 -2.25615004e-005 1.33895383e-005 -3.98768037e-007
      -2.63492366e-005 -6.52216113e-006 -1.48821700e-005 1.85331937e-005
      3.04436198e-005 6.57218843e-005 7.35653448e-005 7.87773170e-005
      3.90560999e-005 2.48397682e-005 1.32179267e-007 -2.54929978e-006
      3.67684843e-005 4.18715063e-005 3.23415334e-005 2.73663372e-005
      -1.55039270e-005 -2.37601926e-005 -8.47346564e-006
      -6.70752388e-006 -2.78179723e-005 -3.44405125e-005
      -2.07858611e-005 2.34665531e-005 5.48737808e-005 1.66312420e-005
      2.25890708e-005 2.04397656e-005 2.28959889e-005 3.54387812e-005
      2.45487195e-006 -3.44038344e-005 -1.60406871e-005 -5.61147772e-006
      -4.40007307e-006 1.06945217e-005 4.89855629e-005 4.21313453e-005
      4.10858192e-005 3.14829376e-005 3.35487530e-005 2.86223349e-005
      3.48680478e-005 2.36281048e-005 2.25841522e-005 4.29285174e-005
      5.59677101e-005 4.21523364e-005 -5.99477426e-006 -4.91096871e-005
      -5.56550767e-005 -3.93614537e-005 -2.91042288e-005 4.31716080e-006
      -8.78730953e-006 2.28756035e-005 5.71085948e-005 1.62780598e-005
      -2.60568158e-005 1.11068657e-004 6.62555904e-005 1.31953211e-005
      -3.52898169e-005 -7.77456080e-005 -8.19412962e-005
      -5.96833816e-005 -3.29249560e-005 -1.95672073e-005
      -8.04627962e-006 -1.03822704e-005 1.86137495e-005 4.34769026e-005
      5.40208093e-005 5.87225150e-005 6.47152701e-005 5.87319846e-005
      4.40633557e-005 3.89141787e-005 6.36715195e-005 6.87404463e-005
      5.35129620e-005 4.47756138e-005 1.82033891e-005 -8.87374517e-006
      -1.36399667e-005 -1.24401286e-005 -1.59353367e-005 2.29578018e-005
      5.97677972e-005 6.43336316e-005 8.53977035e-005 9.20760795e-005
      7.92851206e-005 7.22188051e-005 8.62692832e-005 8.51279474e-005
      1.04898085e-004 1.10253408e-004 6.26856418e-005 2.20307356e-005
      5.77023638e-006 -1.10768133e-005 3.60401136e-005 5.99212108e-005
      5.95209276e-005 1.71239026e-005 -2.35973403e-005 -4.90174934e-005
      -3.76290300e-005 -6.82887776e-006 2.25945278e-005 4.87003927e-005
      4.59657458e-005 3.52296920e-005 5.12054103e-005 6.36534241e-005
      7.86729506e-005 7.21839460e-005 2.24205414e-005 -3.03584675e-005
      -8.80935477e-005 -1.08854307e-004 -8.17479449e-005
      -5.30960369e-006 1.19791375e-005 1.10488018e-005 3.01380860e-005
      6.85751947e-005 7.97075772e-005 6.82465470e-005 1.82074509e-005
      7.68988230e-006 -2.47339394e-005 -5.14551793e-005 -3.41784034e-005
      -2.81018056e-005 -1.00115758e-005 3.54717158e-005 3.76345815e-005
      -2.82451656e-005 -4.27652631e-005 -3.57019890e-005
      -4.86289355e-006 -1.35656992e-005 -3.39647522e-005
      -5.17330736e-005 -4.34111389e-005 -1.26543100e-005
      -1.67493981e-005 8.66932896e-006 3.27958260e-005 4.44942234e-005
      1.13911665e-005 6.69332030e-006 -1.67634444e-005 -1.67716153e-005
      3.17501144e-005 5.91519820e-005 5.10195059e-005 3.31879237e-005
      -2.00872473e-005 -2.15337295e-005 1.33458173e-006 2.39371820e-005
      -2.01956755e-006 -1.30944863e-005 -8.16403190e-006 2.69257307e-005
      4.99322960e-005 -3.42703834e-006 -1.11751042e-005 -8.35999072e-006
      -9.48016714e-006 -6.17316891e-006 -4.07801854e-005
      -7.97067187e-005 -5.60665976e-005 -5.75418999e-005
      -5.27121883e-005 -2.36247251e-005 2.31157792e-005 1.63688110e-005
      1.70633593e-005 3.66184281e-006 9.99237182e-006 7.17475723e-006
      2.37142958e-005 1.56197530e-005 1.88254216e-005 2.83440168e-005
      2.07698704e-005 6.15870931e-006 -9.68858149e-006 -2.31386366e-005
      -3.00490465e-005 -1.17703012e-005 -7.73855390e-006 8.92180196e-006
      2.24562154e-005 4.96056127e-005 7.42516931e-005 3.83060724e-005
      -7.63448588e-006 1.10667446e-004 6.07104885e-005 5.55409451e-006
      -3.95706738e-005 -6.98798904e-005 -7.66106095e-005
      -6.63433239e-005 -3.91444373e-005 -2.45925503e-006
      -9.60061243e-006 -3.26095433e-005 -3.02010758e-005
      -6.99602833e-006 -1.96460223e-005 1.19789838e-005 3.65344022e-005
      7.01405370e-005 5.56571467e-005 5.45441762e-005 8.07203469e-005
      7.73493957e-005 5.52681195e-005 3.15301113e-005 5.76639877e-006
      1.94705208e-005 3.47468049e-005 3.43114625e-005 1.51081094e-005
      3.95052994e-005 4.75376874e-005 4.10095236e-005 4.83641852e-005
      7.54696375e-005 6.67523855e-005 6.91531750e-005 7.88549805e-005
      7.69546896e-005 1.09651468e-004 1.18055876e-004 6.59454163e-005
      3.04433488e-005 4.53543890e-007 6.31003104e-006 3.84692248e-005
      4.28547573e-005 4.14605456e-005 2.54964052e-005 3.58839543e-007
      -6.46957278e-006 -1.37859445e-006 7.21777178e-006 3.34756442e-005
      4.47524872e-005 3.45004592e-005 5.71822602e-005 4.50981315e-005
      5.88167677e-005 8.08983023e-005 6.63113824e-005 7.83033897e-007
      -7.11580651e-005 -1.41144890e-004 -1.39035474e-004
      -1.01556914e-004 -4.49562576e-005 -1.83092325e-005 2.34988729e-005
      3.16662772e-005 5.06493925e-005 5.12980914e-005 5.09442580e-005
      4.98142936e-006 4.24914151e-006 -2.98827331e-006 -9.28475947e-006
      2.02939941e-006 -3.13196460e-006 5.58378542e-006 3.93718583e-005
      5.75045487e-005 -9.65283289e-006 -4.96667344e-005 -4.87369507e-005
      -2.04333155e-005 -4.79283699e-005 -7.14886555e-005
      -1.00914040e-004 -9.21694518e-005 -5.53505815e-005
      -6.13591910e-005 -6.01528372e-005 -4.47673228e-005
      -2.55736286e-005 -2.57355878e-005 -1.72810142e-005
      -5.36427688e-005 -5.19918140e-005 -2.77690415e-005 2.81862208e-006
      7.37703976e-006 7.46764636e-006 -2.25871354e-005 -5.66888821e-006
      3.96249197e-005 7.03170153e-005 6.09474810e-005 5.69156437e-005
      5.12872539e-005 3.73979565e-005 1.70392505e-005 -4.86340869e-005
      -6.08973896e-005 -3.54634249e-005 -2.41424987e-005
      -3.53196301e-005 -6.55503827e-005 -1.19032622e-004
      -8.42237278e-005 -7.07900617e-005 -5.53534264e-005
      -5.81726890e-005 -7.83353971e-006 -1.02359490e-005
      -1.08524191e-005 -2.12511441e-005 -2.60128272e-005
      -2.06776185e-005 -2.11970455e-005 -2.72962807e-005
      -3.58736324e-005 -2.99919902e-005 -4.22166959e-005
      -2.13270050e-005 -1.92344373e-006 7.13283589e-006 4.75427987e-006
      1.29222326e-005 -9.49542118e-006 2.60609522e-005 4.63270881e-005
      7.92086139e-005 8.74518155e-005 3.25272922e-005 -2.48143115e-005
      1.24563856e-004 7.56001464e-005 1.54817917e-005 -3.16232035e-005
      -5.38269742e-005 -4.37271738e-005 -4.68061808e-005
      -2.43872910e-005 -1.77284801e-005 -2.78799234e-005
      -4.60229530e-005 -7.85568627e-005 -8.57620689e-005
      -7.14632697e-005 -5.64284273e-005 -1.21030425e-005 2.27155961e-005
      2.60764264e-005 3.53586584e-005 4.44549914e-005 4.91198334e-005
      1.74754496e-005 1.19790866e-005 -8.63049627e-006 2.06601271e-005
      3.19222891e-005 2.90131975e-005 2.63777092e-005 4.17364899e-005
      1.99491824e-005 -1.73092249e-005 -3.24514549e-005 -1.83313841e-005
      -6.72013266e-006 3.29698451e-005 5.53447862e-005 2.33495157e-005
      3.94332455e-005 5.53132923e-005 3.02966437e-005 -1.53192548e-006
      -2.81595057e-005 -3.80776255e-005 1.34879383e-005 6.64862273e-006
      -3.18114076e-006 -4.03252761e-006 1.99231308e-005 2.13121821e-005
      9.62269496e-006 2.09592563e-005 4.70742998e-005 4.80834206e-005
      2.66631741e-005 3.42314015e-005 5.13643427e-005 5.12562910e-005
      6.81888851e-005 6.59727884e-005 1.07125368e-006 -7.80898263e-005
      -1.39138239e-004 -1.19125187e-004 -8.91878954e-005
      -6.22030348e-005 -1.85766694e-005 9.35795651e-006 8.04519823e-006
      3.04827536e-005 5.49051038e-005 5.06341894e-005 9.41747294e-006
      9.52432219e-006 -6.41416455e-006 -5.33718458e-006 2.90200005e-005
      3.22761516e-005 3.44744080e-006 1.67252256e-005 2.14716310e-005
      -4.27895029e-005 -5.58773827e-005 -7.35655703e-005
      -4.50342268e-005 -6.96584248e-005 -9.37691948e-005
      -1.33236652e-004 -1.43102327e-004 -9.66585794e-005
      -8.29522905e-005 -1.04425111e-004 -7.81999552e-005
      -6.38029524e-005 -4.89435479e-005 -1.64841040e-005
      -3.50379414e-005 -4.14179376e-005 -4.27566265e-005
      -9.80297045e-006 -8.98502640e-006 1.55607722e-005 3.30946318e-006
      1.23433188e-006 3.16822843e-005 5.86856222e-005 6.60238657e-005
      8.45178220e-005 5.94817502e-005 1.69821360e-005 6.15303577e-007
      -4.44398756e-005 -2.12650266e-005 -2.54099359e-006
      -8.98771486e-006 -3.21505322e-005 -5.30752150e-005
      -9.34989439e-005 -6.70621303e-005 -2.83669087e-005
      -3.26644185e-005 -3.41233936e-005 4.28823296e-006 -1.93450451e-005
      -1.80910938e-005 -3.68757064e-005 -4.95116474e-005
      -5.75059312e-005 -7.57363523e-005 -9.29124944e-005
      -1.00377285e-004 -8.45033428e-005 -6.55042822e-005
      -2.87928378e-005 -7.70185125e-006 1.21296225e-005 8.26507221e-006
      -4.33454716e-006 -1.54331392e-005 8.30949193e-006 3.31128103e-005
      8.19906709e-005 8.68738425e-005 3.31637675e-005 -1.90824139e-005
      1.81507290e-004 1.37106894e-004 8.49184580e-005 3.74058473e-005
      1.22411138e-005 3.51167655e-005 3.03892957e-005 2.60467768e-005
      -2.30049409e-006 -2.18890382e-005 -4.99081980e-005
      -7.25047212e-005 -8.44252208e-005 -4.59760777e-005
      -3.14516801e-005 -3.34323995e-005 -2.99183557e-005
      -2.27694818e-005 -2.26742017e-007 9.14793600e-006 1.27458225e-005
      -1.28234833e-005 -1.77851853e-005 -4.24425198e-005
      -1.64346341e-006 2.57776446e-005 1.96598921e-005 3.56691962e-005
      5.42843190e-005 2.81793273e-005 -3.57524077e-005 -8.27774347e-005
      -9.48568340e-005 -7.81998169e-005 -3.82864018e-005 2.36544565e-007
      -1.42871668e-005 -1.49105954e-005 -8.85920417e-006
      -7.33525940e-006 -1.69344476e-005 -3.88294211e-005
      -4.56359157e-005 -2.50269568e-006 -9.05428442e-006
      -1.69630730e-005 -1.73309363e-005 2.75143884e-005 3.99478886e-005
      2.49666464e-005 3.95477255e-005 4.34042886e-005 1.47499168e-005
      -8.08109053e-006 -2.40613895e-006 2.52155332e-005 3.10439973e-005
      2.45431074e-005 2.90501575e-005 -1.04827468e-005 -6.10766874e-005
      -9.82903075e-005 -7.80677874e-005 -6.49542344e-005
      -3.62991668e-005 -1.47496548e-005 -2.99186081e-006
      -1.00382513e-005 5.85056432e-006 4.48616483e-005 4.22913108e-005
      3.68905057e-005 2.83729660e-005 -4.91632773e-006 -3.89988645e-006
      4.84966913e-005 7.43729834e-005 4.99054040e-005 2.70552482e-005
      5.46738784e-006 -4.09710046e-005 -6.72656824e-005 -7.18825686e-005
      -6.34079915e-005 -9.09156297e-005 -1.14774142e-004
      -1.23269536e-004 -1.27318592e-004 -7.85991579e-005
      -5.39528992e-005 -5.76299681e-005 -6.99571974e-005
      -8.89071162e-005 -8.05467789e-005 -3.43219799e-005
      -3.58118486e-005 -5.78836734e-005 -6.42415107e-005
      -2.69938464e-005 -1.11873251e-005 1.63164059e-005 4.68336339e-006
      -8.93281776e-006 -2.40995141e-005 1.26212453e-005 4.19891112e-005
      5.67574789e-005 2.56795011e-005 2.26444467e-006 -1.66547943e-005
      -3.28569804e-005 -1.40300608e-005 5.17055514e-006 -6.68038695e-007
      -3.80212668e-006 -2.88708579e-005 -4.67090031e-005
      -1.64635439e-005 2.17313227e-005 1.24446515e-005 1.14338854e-005
      2.74080521e-005 3.26206214e-006 -9.18506794e-006 -3.42475032e-005
      -4.28236090e-005 -5.76745151e-005 -8.70142030e-005
      -1.13315145e-004 -1.19616197e-004 -1.14435119e-004
      -7.06613209e-005 -2.88098126e-005 -7.28211398e-006
      -2.79588562e-006 -2.12745658e-006 -6.98064832e-006
      -1.88855120e-005 -1.21092135e-005 6.49215917e-006 5.76788698e-005
      8.17039690e-005 3.90620698e-005 -6.36549066e-006 2.04504380e-004
      1.50028689e-004 8.82777531e-005 6.00099520e-005 4.60515876e-005
      5.73677389e-005 6.09086019e-005 4.68711551e-005 1.36864310e-005
      -5.22724758e-006 -3.35147488e-005 -4.53307948e-005
      -4.27906598e-005 -3.23782515e-005 -3.51254312e-005
      -6.21020954e-005 -8.53626698e-005 -8.58090934e-005
      -5.64139627e-005 -2.19692702e-005 -3.03543061e-006 6.26901010e-006
      -2.56333715e-006 -1.05972385e-005 1.38806136e-005 2.87229122e-005
      2.70971595e-005 5.74589576e-005 7.20522439e-005 7.18631782e-005
      2.38601879e-005 -3.73597104e-005 -4.68793187e-005 -4.00697463e-005
      -1.61738462e-005 6.46613807e-006 -8.63184687e-006 -1.21225421e-005
      2.50707490e-006 -8.29960391e-006 -9.13284293e-006 -1.97184399e-005
      -3.22926971e-005 -2.72100388e-005 -5.46085721e-005
      -7.53277855e-005 -6.57650453e-005 1.47799904e-006 3.04876921e-005
      3.75465061e-005 3.40705155e-005 1.11015215e-005 -2.42444130e-005
      -3.90672940e-005 -3.45677472e-005 -1.05461959e-005
      -1.62484662e-006 -1.40560851e-005 -1.47398450e-005
      -3.32917734e-005 -7.66123412e-005 -6.46007975e-005
      -5.31874939e-005 -5.87324867e-005 -5.61725101e-005
      -5.54024737e-005 -3.79107805e-005 -1.55732487e-005
      -7.89293154e-006 2.01126568e-005 2.09285608e-005 3.86909269e-005
      4.55997579e-005 1.33600761e-005 2.13395720e-006 4.09479435e-005
      8.15805906e-005 7.12353649e-005 6.01309730e-005 1.36381641e-005
      -2.46600557e-005 -3.78660916e-005 -5.04625241e-005
      -4.75973648e-005 -6.77071221e-005 -9.20400416e-005
      -9.24810520e-005 -6.60361402e-005 -1.08007225e-005 6.35301831e-006
      4.62216258e-006 -3.28405179e-007 -4.58130162e-005 -3.08121489e-005
      2.07327867e-006 -2.06197983e-005 -4.49697909e-005 -4.29012071e-005
      -3.32963500e-005 -4.87026136e-006 2.35273747e-005 3.41434065e-006
      -1.29328464e-005 -7.42015891e-006 -7.11684561e-006 1.77027905e-005
      1.30049511e-005 -6.39397376e-006 -5.31820933e-006 6.87026431e-006
      2.70239480e-006 9.61382830e-006 -2.42185479e-006 1.36191011e-005
      2.43328486e-005 1.69049199e-005 -2.50367157e-005 -5.92986407e-006
      3.27388516e-005 5.21712973e-005 4.72221691e-005 3.68501969e-005
      3.51814597e-005 2.31849026e-005 1.97827358e-005 1.46381053e-005
      8.44310398e-006 -2.61581245e-005 -6.95087292e-005 -9.61840051e-005
      -7.21803808e-005 -2.59439130e-005 -1.61221988e-006
      -3.14233807e-006 4.68669805e-006 4.10498023e-006 -5.00835131e-006
      -1.27039830e-005 -6.53584630e-006 -2.75611706e-006 2.83072513e-005
      6.78064825e-005 3.32129093e-005 -2.21067623e-007 2.22916322e-004
      1.58054332e-004 7.83188370e-005 4.63007054e-005 3.98671109e-005
      4.38368261e-005 4.36823175e-005 2.25021467e-005 2.23574643e-005
      1.00096886e-005 -2.03939853e-005 -4.41089287e-005 -5.57619460e-005
      -5.89588999e-005 -6.85385603e-005 -8.02021386e-005
      -9.50035464e-005 -1.11247347e-004 -1.10151886e-004
      -7.88028192e-005 -4.47382881e-005 -7.39798361e-006 2.09530917e-005
      8.24919880e-006 2.00267932e-005 8.11333939e-006 2.22656072e-005
      5.31253427e-005 8.68389252e-005 8.83167668e-005 4.49790532e-005
      1.43198477e-005 2.08701149e-005 1.28199081e-005 2.68518488e-005
      2.25071926e-005 -1.17273630e-005 -2.02709616e-005 3.93551954e-006
      6.36920549e-006 1.72344016e-006 1.43374552e-006 -9.20778712e-006
      1.76318790e-005 -1.99492006e-005 -6.19308921e-005 -5.23070266e-005
      1.58974690e-005 5.18699453e-005 3.91163740e-005 8.88831710e-006
      -1.42506979e-005 -3.30336625e-005 -4.49846484e-005
      -3.62257706e-005 -2.94997099e-005 -3.83424995e-005
      -4.46964441e-005 -4.55701920e-005 -9.36051802e-005
      -1.15518458e-004 -8.27309195e-005 -7.41028562e-005
      -6.91811656e-005 -7.35803478e-005 -7.70477491e-005
      -6.38793499e-005 -4.09809909e-005 -4.66650927e-005
      -5.47589334e-005 -5.18359448e-005 -4.20232864e-005
      -3.33575153e-005 -4.37345589e-005 -3.61401653e-005 4.52305585e-007
      3.17516242e-005 1.39471704e-005 1.36560084e-005 -2.14282572e-005
      -3.29333416e-005 -3.07511764e-005 -4.86077079e-005
      -4.92936451e-005 -6.78803262e-005 -7.38199378e-005
      -5.84124209e-005 -1.77949041e-005 4.12005757e-005 5.28970522e-005
      6.89260050e-005 6.91126188e-005 4.11514447e-005 4.96882712e-005
      5.20012727e-005 3.45423323e-005 1.87719218e-006 -2.09597687e-007
      -2.06469304e-005 -8.74504622e-006 1.54770478e-005 2.76068822e-005
      3.72036557e-005 4.40019248e-005 1.27239509e-005 -2.86128966e-006
      -4.23492202e-005 -8.82934401e-005 -6.42641826e-005
      -3.23688764e-005 -3.12345874e-005 -3.69221889e-005
      -3.50934206e-005 -1.10060992e-005 -3.15626971e-006
      -9.25944641e-006 -3.19136707e-005 -1.32472278e-005 2.89766231e-005
      5.80877531e-005 3.70600173e-005 2.27607507e-005 1.29099853e-005
      -1.11540282e-006 3.30684670e-005 5.49771794e-005 2.96699509e-005
      -1.28467427e-005 -5.14217645e-005 -7.03038677e-005
      -4.12304980e-005 -3.48896210e-005 -2.46559121e-005
      -2.00973718e-005 -1.21494604e-005 -1.04647961e-005
      -1.84390592e-005 -1.68758452e-005 -6.38397705e-006
      -1.37203269e-005 4.09897712e-006 4.28069834e-005 1.41017354e-005
      -1.65032707e-005 1.83831697e-004 1.22263184e-004 4.48781684e-005
      1.01195210e-005 7.07342588e-006 -1.73413605e-006 -9.74268119e-007
      7.66568155e-006 1.73413591e-005 1.23904092e-005 2.37642075e-006
      -1.19979522e-005 -2.46626405e-005 -2.80910790e-005
      -4.06632826e-005 -6.01549582e-005 -8.14351733e-005
      -8.65336842e-005 -7.27956285e-005 -4.94485612e-005
      -4.18003874e-005 -2.78047573e-005 2.52578758e-007 1.78891987e-005
      2.26846678e-005 2.42180577e-005 2.56721542e-005 4.51980413e-005
      8.06398020e-005 8.25365132e-005 5.18547131e-005 3.92288784e-005
      3.99157179e-005 1.81547966e-005 2.05278502e-005 1.42078870e-005
      -1.83608208e-005 -3.98621087e-005 -1.44321157e-005
      -4.52895029e-006 -6.57337614e-006 -6.62731918e-006
      -1.22119081e-005 -5.62450168e-006 -2.34225372e-005
      -6.65417174e-005 -5.12231309e-005 2.06618424e-005 5.91227508e-005
      4.66301681e-005 2.67760224e-005 1.11970176e-005 8.59326610e-006
      1.03202474e-005 2.41548987e-005 2.74576814e-005 7.64792367e-006
      -6.67942140e-006 -3.94226226e-005 -1.09871035e-004
      -9.88574393e-005 -7.25563004e-005 -5.14620770e-005
      -2.95091904e-005 -3.72483955e-005 -5.88007752e-005
      -6.88965374e-005 -6.03271947e-005 -7.32739645e-005
      -7.26637300e-005 -6.07310940e-005 -5.54327889e-005
      -6.33845702e-005 -5.70908087e-005 -4.39195683e-005
      -1.39804270e-005 8.96712208e-006 -2.56188305e-005 -2.95823484e-005
      -4.94630985e-005 -4.41795928e-005 -4.22849334e-005
      -5.14749263e-005 -5.24814277e-005 -5.57665699e-005
      -5.70689372e-005 -2.88721112e-005 -1.06255975e-005 3.67095272e-005
      6.76632844e-005 7.23666526e-005 7.82166971e-005 5.99730010e-005
      5.71953278e-005 7.08879525e-005 6.73248578e-005 3.15085963e-005
      6.00494877e-006 1.60513673e-006 9.24096275e-006 1.45582326e-005
      3.03170127e-005 6.17615733e-005 7.00487290e-005 4.32842171e-005
      -1.21024812e-006 -6.98514923e-005 -1.17084674e-004
      -1.17855976e-004 -9.36518336e-005 -8.51745863e-005
      -7.00452511e-005 -5.36540174e-005 -3.20964064e-005
      -2.37748991e-005 -4.25821054e-005 -4.40483527e-005
      -2.79722244e-005 2.36895339e-005 2.16199369e-005 2.61469595e-005
      -6.40944381e-006 -3.39234030e-005 -4.56498274e-005
      -1.39741824e-005 -5.60491526e-006 -2.59759036e-005
      -4.55058071e-005 -5.10263890e-005 -5.89312913e-005
      -3.42023231e-005 -2.36019587e-005 -2.41912439e-005
      -3.19363498e-005 -3.04331334e-005 -1.84933670e-005
      -2.34683484e-005 -2.31396280e-005 -1.71589290e-005
      -3.49972033e-005 -2.07703051e-005 1.62758042e-005 3.14881413e-006
      -2.82993060e-005 1.07208485e-004 7.18039300e-005 2.44345665e-005
      8.34247089e-008 -1.47166393e-005 -2.17553152e-005 -1.98553771e-005
      -6.15002762e-007 8.27679196e-006 -9.61897399e-007 -1.82522363e-005
      -2.75690945e-005 -1.78991486e-005 1.08817685e-005 1.72966775e-005
      -1.69364066e-005 -4.27223276e-005 -4.81413372e-005
      -4.46395461e-005 -4.07971020e-005 -4.24208592e-005
      -3.18700768e-005 -1.66900627e-005 1.25758288e-005 3.38612481e-005
      2.47085136e-005 1.44567321e-005 1.96906003e-005 5.81456989e-005
      7.82717616e-005 5.82645043e-005 5.16294713e-005 5.42800299e-005
      1.77325146e-005 1.88645117e-005 2.88060655e-005 1.27127105e-005
      -1.53991132e-005 -1.08452277e-005 5.70265138e-006 6.26518067e-006
      4.49444860e-006 4.97567157e-007 1.55421606e-006 -1.24720782e-005
      -4.98584013e-005 -5.58964784e-005 -1.12560883e-005 3.66547720e-005
      3.40010010e-005 3.49177499e-005 1.23060536e-005 1.54576046e-005
      3.49877519e-005 5.19173664e-005 3.31386400e-005 6.44503689e-006
      -7.85231259e-006 -4.18056698e-005 -7.96275926e-005
      -5.07660770e-005 -4.40443910e-005 -2.74632912e-005 7.05589491e-006
      1.24471364e-006 -1.93357300e-005 -5.11899416e-005 -4.80092858e-005
      -4.94566266e-005 -3.16735204e-005 -2.20397869e-005
      -2.73291189e-005 -3.24396824e-005 -2.18157802e-005
      -3.69901318e-005 -2.56494932e-005 -1.45197164e-005
      -2.99814092e-005 -3.10996329e-005 -3.41876912e-005
      -4.77104077e-005 -4.31114568e-005 -4.17582996e-005
      -5.89177034e-005 -4.62756689e-005 -3.36999292e-005
      -1.48149948e-005 -8.85629288e-006 1.22513229e-005 4.24568643e-005
      6.38323909e-005 8.37096668e-005 7.66951052e-005 8.21663198e-005
      8.84686160e-005 7.81834460e-005 4.46891790e-005 1.79195740e-005
      2.01433395e-005 3.48555295e-005 2.21797181e-005 2.31839513e-005
      5.29052704e-005 5.66502276e-005 4.03074846e-005 -1.58958403e-006
      -4.21163459e-005 -7.24061319e-005 -8.00159105e-005
      -8.33309605e-005 -8.20162895e-005 -5.56350315e-005
      -4.12581721e-005 -2.13718467e-005 -1.55410053e-005
      -2.66698976e-006 -2.13587446e-005 -2.32456387e-005
      -2.90918614e-008 3.36763951e-005 2.86600771e-005 1.71536283e-006
      -9.24432698e-006 -2.87469247e-005 -2.67114465e-005
      -4.45083897e-005 -5.88113726e-005 -6.05272253e-005
      -5.95891979e-005 -5.90808449e-005 -3.60440790e-005
      -2.17837041e-005 -5.69878512e-006 1.34168772e-006 2.48229912e-006
      4.60374122e-006 -1.01053038e-005 -1.29269083e-005 -6.56009843e-006
      -3.11727235e-005 -3.39857033e-005 8.48292871e-007 -1.54677582e-005
      -4.81311363e-005 8.75753249e-005 6.24446693e-005 2.54900951e-005
      -1.01223338e-006 -1.25185506e-005 -2.45818555e-005
      -2.58644232e-005 -8.03916191e-006 2.93165931e-006 -1.13508286e-005
      -1.51403519e-005 -1.57674876e-005 -4.36419850e-006 2.89403615e-005
      3.53551186e-005 1.61845219e-005 -1.43354273e-005 -4.99823582e-005
      -5.35113431e-005 -5.93049299e-005 -6.25265748e-005
      -5.19585265e-005 -3.63749532e-005 -1.75962195e-005 3.22538949e-006
      -2.37427648e-005 -3.04933401e-005 -1.34722704e-005 2.89550699e-005
      4.31681692e-005 3.08513445e-005 3.50623413e-005 3.12808224e-005
      1.03081475e-005 1.40039574e-005 1.72401833e-005 9.08506445e-006
      -2.44349285e-005 -3.03256402e-005 -1.77217335e-005
      -1.67476010e-005 -6.36106415e-006 1.21569974e-006 1.12679108e-005
      -6.66477808e-006 -4.24086429e-005 -4.15503200e-005
      -9.27591282e-006 2.45567389e-005 2.61911155e-005 3.23809109e-005
      2.88649280e-005 2.46538802e-005 5.97590224e-005 7.47498343e-005
      3.74046758e-005 1.49645939e-005 -1.92218545e-006 -4.25567523e-005
      -7.52110791e-005 -4.51844062e-005 -4.76437963e-005
      -4.14952010e-005 -2.74284321e-005 -2.46688505e-005
      -3.75135351e-005 -4.76003443e-005 -5.29716817e-005
      -4.15887880e-005 -1.31629495e-005 -4.90921821e-006
      -5.66984500e-006 -1.35213704e-005 -1.34328566e-005
      -1.14935965e-005 -5.78969946e-007 1.53528508e-005 7.82108236e-006
      1.34798383e-005 4.06362687e-006 -1.08341965e-006 -5.23310246e-006
      -6.05119294e-006 -2.68222229e-005 -2.10157577e-005
      -1.82562162e-005 -1.57880677e-005 1.90833953e-006 2.31882696e-005
      5.29929639e-005 7.45211073e-005 8.15711392e-005 7.65371879e-005
      6.01870270e-005 4.79792725e-005 4.63934157e-005 2.74803715e-005
      -1.09167922e-006 -3.36164248e-006 1.24887383e-005 1.45837139e-005
      1.06738844e-005 8.38984306e-006 1.25381512e-005 7.84417625e-006
      9.22274285e-006 1.17649570e-005 1.55198122e-005 9.72514226e-006
      9.01960618e-007 -1.89357415e-005 7.69513190e-006 1.68590213e-005
      2.81950834e-005 4.08452943e-005 5.37204032e-005 4.94816413e-005
      4.92452200e-005 4.41229749e-005 5.57312524e-005 5.98306542e-005
      5.46262163e-005 5.21831316e-005 1.13774877e-005 -5.13544182e-006
      -2.06500117e-005 -2.18025598e-005 -2.28375011e-005
      -2.55997238e-005 -3.01116106e-005 -2.32418051e-006 3.77741048e-006
      8.62719207e-006 1.25608703e-005 2.52635400e-005 3.47604655e-005
      1.99028254e-005 1.59182746e-005 1.58380026e-005 -1.47953024e-005
      -2.52884674e-005 -1.27415233e-005 -2.50414741e-005
      -6.25713583e-005 6.58077188e-005 4.43155477e-005 1.68076531e-005
      4.65923677e-006 -6.28355929e-006 -3.29230206e-005 -3.79031044e-005
      -1.76167305e-005 -1.94839813e-005 -2.77494601e-005
      -2.91838387e-005 -2.40399968e-005 -8.13051611e-006 1.39424819e-005
      5.17138869e-006 -1.54574755e-005 -3.16089499e-005 -4.01914513e-005
      -5.42398375e-005 -6.88893415e-005 -8.72834353e-005
      -9.12362302e-005 -6.79960649e-005 -3.99727214e-005
      -2.97358929e-005 -4.18340715e-005 -5.66047747e-005
      -2.81580360e-005 7.97754274e-006 1.87121987e-005 7.91978800e-006
      -1.33303422e-006 2.07009020e-006 -1.44963960e-005 -1.84078817e-005
      -1.49810023e-006 -5.60254421e-006 -1.70901385e-005
      -2.52479822e-005 -2.33275769e-005 -1.78723567e-005
      -8.11424979e-006 1.48579738e-005 1.98576963e-005 4.68370717e-006
      -2.63178936e-005 -1.96327419e-005 -1.93222832e-007
      -7.44032104e-006 4.44865282e-006 1.59859082e-005 2.07237990e-005
      1.34912452e-005 2.96400358e-005 4.27451232e-005 2.95818081e-005
      1.90838000e-005 1.02854065e-005 -1.97490517e-005 -4.76415989e-005
      -3.25958426e-005 -4.04336206e-005 -3.92488255e-005
      -4.08763954e-005 -3.38442005e-005 -3.05318172e-005
      -1.78830760e-005 -2.57382981e-005 -1.49625885e-005 2.36363832e-007
      -6.05041123e-006 -1.64321391e-005 -8.87667011e-006
      -2.83745558e-005 -2.50336925e-005 -3.42519411e-006 1.45415925e-005
      9.59568297e-006 1.75713722e-005 2.19192971e-005 1.50544201e-005
      3.50869486e-005 3.16727492e-005 1.07651695e-005 9.32345847e-006
      1.40556213e-005 1.34698812e-005 2.88015835e-005 4.60283882e-005
      6.29336428e-005 6.29378555e-005 7.68594327e-005 8.41169967e-005
      7.91109996e-005 6.64491163e-005 4.99058988e-005 2.62883168e-005
      -1.31724228e-005 -2.37402364e-005 -1.03944531e-005 1.04256014e-005
      1.37047473e-005 2.97727570e-006 1.93231358e-006 -1.81038570e-006
      1.28023239e-005 2.64848040e-005 4.67851860e-005 6.15245226e-005
      4.27590130e-005 2.81458415e-005 3.16514161e-005 3.18911771e-005
      3.91782778e-005 5.13965460e-005 5.74258993e-005 7.42520497e-005
      6.25171087e-005 3.44556611e-005 2.19971716e-005 2.64650153e-005
      3.41847663e-005 3.49661677e-005 8.44647730e-006 1.36568360e-005
      5.87696650e-006 4.91179293e-008 2.00746535e-006 5.71673536e-006
      1.30652336e-006 3.62162791e-005 4.31672306e-005 3.79508492e-005
      2.89562395e-005 2.72638954e-005 2.83430054e-005 1.49997313e-005
      7.86792953e-006 6.41941460e-006 9.01388194e-006 -8.08751793e-006
      -2.63808652e-005 -5.14635976e-005 -6.86408457e-005 3.24003631e-005
      2.05604229e-005 1.06407315e-005 8.08378354e-006 -1.23972204e-005
      -3.29931972e-005 -3.27452217e-005 -2.45309366e-005
      -2.21665887e-005 -2.64297923e-005 -2.97350853e-005
      -2.63660841e-005 -1.90249229e-005 -2.10896474e-006
      -3.29675936e-006 -3.23380846e-005 -4.17967240e-005
      -4.17125375e-005 -4.36513656e-005 -7.81726922e-005
      -9.69205648e-005 -7.67781239e-005 -6.56114134e-005
      -4.70308805e-005 -2.21799855e-005 -4.46746162e-005
      -5.69866024e-005 -3.15353282e-005 -8.07237848e-006 2.07739631e-005
      1.52745361e-006 -4.28599924e-006 -2.52605133e-007 -1.07161313e-005
      -1.74076431e-005 -5.25269706e-006 -1.34752818e-005
      -2.63446909e-005 -2.01955263e-005 -2.76011579e-005
      -1.50033202e-005 1.99353485e-006 2.92314890e-005 2.27540950e-005
      4.72457987e-006 -1.88635258e-005 -5.12316092e-006 8.58369458e-006
      -3.12740923e-007 -4.88446403e-006 4.12849704e-006 1.24201852e-005
      6.25465373e-006 1.29286600e-005 3.24875800e-005 3.28868082e-005
      2.27383971e-005 1.63217246e-005 -9.88786542e-006 -3.90409732e-005
      -2.44618441e-005 -3.74789233e-005 -3.88718872e-005
      -6.20775318e-005 -5.23534109e-005 -3.82457365e-005
      -1.15901812e-005 -7.80342634e-006 -4.53737175e-006 5.60350600e-006
      -1.54874215e-005 -1.90961200e-005 -2.53599228e-005
      -3.66645290e-005 -3.16772384e-005 -1.02689492e-005 2.47550884e-006
      -2.99810335e-006 4.86078352e-006 1.50935748e-005 1.42505760e-005
      3.32313684e-005 4.13515118e-005 2.74158847e-005 2.47210410e-005
      2.13768526e-005 2.35615826e-005 3.29653558e-005 4.14687893e-005
      4.96410357e-005 4.55439549e-005 5.77321516e-005 6.40157014e-005
      6.30775830e-005 5.38691493e-005 4.05607279e-005 6.07372522e-006
      -4.11888177e-005 -3.82306898e-005 -2.12318810e-005 3.72898648e-006
      1.31121151e-005 6.39306199e-006 -1.03482955e-006 -1.58180083e-005
      6.66170672e-006 3.81963546e-005 6.53308671e-005 7.05083658e-005
      5.59210457e-005 4.12007757e-005 3.10362193e-005 3.07874325e-005
      4.49967083e-005 5.58885149e-005 6.81486563e-005 7.08448933e-005
      4.97779802e-005 2.12736850e-005 1.11860672e-005 1.50591659e-005
      2.45917217e-005 2.42918341e-005 2.21218488e-005 3.85500171e-005
      2.27559667e-005 1.24230892e-005 1.79431790e-005 1.96763631e-005
      2.29446268e-005 4.90141210e-005 5.67043498e-005 4.38474344e-005
      4.05850842e-005 4.19032513e-005 2.64462960e-005 2.59449712e-006
      1.54940574e-006 1.61589342e-005 9.35739263e-006 2.56807448e-006
      -2.01023795e-005 -5.68664000e-005 -7.55590081e-005</_></support_vectors>
  <decision_functions>
    <_>
      <sv_count>1</sv_count>
      <rho>-3.5839819476944692e+000</rho>
      <alpha>
        1.</alpha>
      <index>
        0</index></_></decision_functions></my_svm>
</opencv_storage>
